digraph Tree {
node [shape=box, style="filled", color="black", fontname="helvetica"] ;
edge [fontname="helvetica"] ;
0 [label="Flags <= 14.5\ngini = 0.221\nsamples = 21900334\nvalue = [19122707, 2777627]\nclass = 0", fillcolor="#e99356"] ;
1 [label="Flags <= 3.5\ngini = 0.134\nsamples = 20533537\nvalue = [19051981, 1481556]\nclass = 0", fillcolor="#e78b48"] ;
0 -> 1 [labeldistance=2.5, labelangle=45, headlabel="True"] ;
2 [label="Bytes <= 48.0\ngini = 0.002\nsamples = 15238528\nvalue = [15226203, 12325]\nclass = 0", fillcolor="#e58139"] ;
1 -> 2 ;
3 [label="Flags <= 2.5\ngini = 0.408\nsamples = 16143\nvalue = [11527, 4616]\nclass = 0", fillcolor="#efb388"] ;
2 -> 3 ;
4 [label="gini = 0.0\nsamples = 11527\nvalue = [11527, 0]\nclass = 0", fillcolor="#e58139"] ;
3 -> 4 ;
5 [label="gini = 0.0\nsamples = 4616\nvalue = [0, 4616]\nclass = 1", fillcolor="#399de5"] ;
3 -> 5 ;
6 [label="Flags <= 2.5\ngini = 0.001\nsamples = 15222385\nvalue = [15214676, 7709]\nclass = 0", fillcolor="#e58139"] ;
2 -> 6 ;
7 [label="Bytes <= 54.5\ngini = 0.0\nsamples = 12332148\nvalue = [12330460, 1688]\nclass = 0", fillcolor="#e58139"] ;
6 -> 7 ;
8 [label="Src_Pt <= 12706.5\ngini = 0.004\nsamples = 534101\nvalue = [533059, 1042]\nclass = 0", fillcolor="#e58139"] ;
7 -> 8 ;
9 [label="Src_Pt <= 6387.5\ngini = 0.0\nsamples = 411416\nvalue = [411402, 14]\nclass = 0", fillcolor="#e58139"] ;
8 -> 9 ;
10 [label="Src_Pt <= 1896.5\ngini = 0.0\nsamples = 366950\nvalue = [366948, 2]\nclass = 0", fillcolor="#e58139"] ;
9 -> 10 ;
11 [label="gini = 0.0\nsamples = 336798\nvalue = [336798, 0]\nclass = 0", fillcolor="#e58139"] ;
10 -> 11 ;
12 [label="Src_Pt <= 1898.5\ngini = 0.0\nsamples = 30152\nvalue = [30150, 2]\nclass = 0", fillcolor="#e58139"] ;
10 -> 12 ;
13 [label="Dst_IP <= 0.5\ngini = 0.444\nsamples = 6\nvalue = [4, 2]\nclass = 0", fillcolor="#f2c09c"] ;
12 -> 13 ;
14 [label="gini = 0.0\nsamples = 2\nvalue = [0, 2]\nclass = 1", fillcolor="#399de5"] ;
13 -> 14 ;
15 [label="gini = 0.0\nsamples = 4\nvalue = [4, 0]\nclass = 0", fillcolor="#e58139"] ;
13 -> 15 ;
16 [label="gini = 0.0\nsamples = 30146\nvalue = [30146, 0]\nclass = 0", fillcolor="#e58139"] ;
12 -> 16 ;
17 [label="Src_Pt <= 6388.5\ngini = 0.001\nsamples = 44466\nvalue = [44454, 12]\nclass = 0", fillcolor="#e58139"] ;
9 -> 17 ;
18 [label="Dst_IP <= 0.5\ngini = 0.48\nsamples = 5\nvalue = [3, 2]\nclass = 0", fillcolor="#f6d5bd"] ;
17 -> 18 ;
19 [label="gini = 0.0\nsamples = 2\nvalue = [0, 2]\nclass = 1", fillcolor="#399de5"] ;
18 -> 19 ;
20 [label="gini = 0.0\nsamples = 3\nvalue = [3, 0]\nclass = 0", fillcolor="#e58139"] ;
18 -> 20 ;
21 [label="Dst_IP <= 0.5\ngini = 0.0\nsamples = 44461\nvalue = [44451, 10]\nclass = 0", fillcolor="#e58139"] ;
17 -> 21 ;
22 [label="Dst_Pt <= 12.0\ngini = 0.056\nsamples = 344\nvalue = [334, 10]\nclass = 0", fillcolor="#e6853f"] ;
21 -> 22 ;
23 [label="gini = 0.0\nsamples = 334\nvalue = [334, 0]\nclass = 0", fillcolor="#e58139"] ;
22 -> 23 ;
24 [label="gini = 0.0\nsamples = 10\nvalue = [0, 10]\nclass = 1", fillcolor="#399de5"] ;
22 -> 24 ;
25 [label="gini = 0.0\nsamples = 44117\nvalue = [44117, 0]\nclass = 0", fillcolor="#e58139"] ;
21 -> 25 ;
26 [label="Dst_IP <= 0.5\ngini = 0.017\nsamples = 122685\nvalue = [121657, 1028]\nclass = 0", fillcolor="#e5823b"] ;
8 -> 26 ;
27 [label="Dst_Pt <= 18.5\ngini = 0.182\nsamples = 1144\nvalue = [116, 1028]\nclass = 1", fillcolor="#4fa8e8"] ;
26 -> 27 ;
28 [label="gini = 0.0\nsamples = 93\nvalue = [93, 0]\nclass = 0", fillcolor="#e58139"] ;
27 -> 28 ;
29 [label="Dst_Pt <= 1238.5\ngini = 0.043\nsamples = 1051\nvalue = [23, 1028]\nclass = 1", fillcolor="#3d9fe6"] ;
27 -> 29 ;
30 [label="gini = 0.0\nsamples = 1028\nvalue = [0, 1028]\nclass = 1", fillcolor="#399de5"] ;
29 -> 30 ;
31 [label="gini = 0.0\nsamples = 23\nvalue = [23, 0]\nclass = 0", fillcolor="#e58139"] ;
29 -> 31 ;
32 [label="gini = 0.0\nsamples = 121541\nvalue = [121541, 0]\nclass = 0", fillcolor="#e58139"] ;
26 -> 32 ;
33 [label="Flags <= 1.5\ngini = 0.0\nsamples = 11798047\nvalue = [11797401, 646]\nclass = 0", fillcolor="#e58139"] ;
7 -> 33 ;
34 [label="Bytes <= 1771.5\ngini = 0.0\nsamples = 9518804\nvalue = [9518790, 14]\nclass = 0", fillcolor="#e58139"] ;
33 -> 34 ;
35 [label="Packets <= 6.5\ngini = 0.0\nsamples = 8992700\nvalue = [8992694, 6]\nclass = 0", fillcolor="#e58139"] ;
34 -> 35 ;
36 [label="Src_Pt <= 1304.5\ngini = 0.0\nsamples = 8908825\nvalue = [8908821, 4]\nclass = 0", fillcolor="#e58139"] ;
35 -> 36 ;
37 [label="gini = 0.0\nsamples = 4573706\nvalue = [4573706, 0]\nclass = 0", fillcolor="#e58139"] ;
36 -> 37 ;
38 [label="Src_Pt <= 1305.5\ngini = 0.0\nsamples = 4335119\nvalue = [4335115, 4]\nclass = 0", fillcolor="#e58139"] ;
36 -> 38 ;
39 [label="Dst_IP <= 0.5\ngini = 0.049\nsamples = 80\nvalue = [78, 2]\nclass = 0", fillcolor="#e6843e"] ;
38 -> 39 ;
40 [label="gini = 0.0\nsamples = 2\nvalue = [0, 2]\nclass = 1", fillcolor="#399de5"] ;
39 -> 40 ;
41 [label="gini = 0.0\nsamples = 78\nvalue = [78, 0]\nclass = 0", fillcolor="#e58139"] ;
39 -> 41 ;
42 [label="Dst_Pt <= 16346.5\ngini = 0.0\nsamples = 4335039\nvalue = [4335037, 2]\nclass = 0", fillcolor="#e58139"] ;
38 -> 42 ;
43 [label="Dst_IP <= 0.5\ngini = 0.0\nsamples = 4333385\nvalue = [4333384, 1]\nclass = 0", fillcolor="#e58139"] ;
42 -> 43 ;
44 [label="Dst_Pt <= 18.5\ngini = 0.0\nsamples = 431767\nvalue = [431766, 1]\nclass = 0", fillcolor="#e58139"] ;
43 -> 44 ;
45 [label="gini = 0.0\nsamples = 426802\nvalue = [426802, 0]\nclass = 0", fillcolor="#e58139"] ;
44 -> 45 ;
46 [label="Src_Pt <= 20864.0\ngini = 0.0\nsamples = 4965\nvalue = [4964, 1]\nclass = 0", fillcolor="#e58139"] ;
44 -> 46 ;
47 [label="gini = 0.0\nsamples = 3700\nvalue = [3700, 0]\nclass = 0", fillcolor="#e58139"] ;
46 -> 47 ;
48 [label="Src_Pt <= 20909.0\ngini = 0.002\nsamples = 1265\nvalue = [1264, 1]\nclass = 0", fillcolor="#e58139"] ;
46 -> 48 ;
49 [label="gini = 0.0\nsamples = 1\nvalue = [0, 1]\nclass = 1", fillcolor="#399de5"] ;
48 -> 49 ;
50 [label="gini = 0.0\nsamples = 1264\nvalue = [1264, 0]\nclass = 0", fillcolor="#e58139"] ;
48 -> 50 ;
51 [label="gini = 0.0\nsamples = 3901618\nvalue = [3901618, 0]\nclass = 0", fillcolor="#e58139"] ;
43 -> 51 ;
52 [label="Dst_Pt <= 16365.0\ngini = 0.001\nsamples = 1654\nvalue = [1653, 1]\nclass = 0", fillcolor="#e58139"] ;
42 -> 52 ;
53 [label="gini = 0.0\nsamples = 1\nvalue = [0, 1]\nclass = 1", fillcolor="#399de5"] ;
52 -> 53 ;
54 [label="gini = 0.0\nsamples = 1653\nvalue = [1653, 0]\nclass = 0", fillcolor="#e58139"] ;
52 -> 54 ;
55 [label="Duration <= 3.5\ngini = 0.0\nsamples = 83875\nvalue = [83873, 2]\nclass = 0", fillcolor="#e58139"] ;
35 -> 55 ;
56 [label="Dst_Pt <= 23515.0\ngini = 0.002\nsamples = 847\nvalue = [846, 1]\nclass = 0", fillcolor="#e58139"] ;
55 -> 56 ;
57 [label="gini = 0.0\nsamples = 770\nvalue = [770, 0]\nclass = 0", fillcolor="#e58139"] ;
56 -> 57 ;
58 [label="Dst_Pt <= 23545.0\ngini = 0.026\nsamples = 77\nvalue = [76, 1]\nclass = 0", fillcolor="#e5833c"] ;
56 -> 58 ;
59 [label="gini = 0.0\nsamples = 1\nvalue = [0, 1]\nclass = 1", fillcolor="#399de5"] ;
58 -> 59 ;
60 [label="gini = 0.0\nsamples = 76\nvalue = [76, 0]\nclass = 0", fillcolor="#e58139"] ;
58 -> 60 ;
61 [label="Duration <= 61.5\ngini = 0.0\nsamples = 83028\nvalue = [83027, 1]\nclass = 0", fillcolor="#e58139"] ;
55 -> 61 ;
62 [label="Duration <= 60.5\ngini = 0.0\nsamples = 9442\nvalue = [9441, 1]\nclass = 0", fillcolor="#e58139"] ;
61 -> 62 ;
63 [label="gini = 0.0\nsamples = 9092\nvalue = [9092, 0]\nclass = 0", fillcolor="#e58139"] ;
62 -> 63 ;
64 [label="Dst_IP <= 0.5\ngini = 0.006\nsamples = 350\nvalue = [349, 1]\nclass = 0", fillcolor="#e5813a"] ;
62 -> 64 ;
65 [label="Dst_Pt <= 3053.0\ngini = 0.198\nsamples = 9\nvalue = [8, 1]\nclass = 0", fillcolor="#e89152"] ;
64 -> 65 ;
66 [label="gini = 0.0\nsamples = 1\nvalue = [0, 1]\nclass = 1", fillcolor="#399de5"] ;
65 -> 66 ;
67 [label="gini = 0.0\nsamples = 8\nvalue = [8, 0]\nclass = 0", fillcolor="#e58139"] ;
65 -> 67 ;
68 [label="gini = 0.0\nsamples = 341\nvalue = [341, 0]\nclass = 0", fillcolor="#e58139"] ;
64 -> 68 ;
69 [label="gini = 0.0\nsamples = 73586\nvalue = [73586, 0]\nclass = 0", fillcolor="#e58139"] ;
61 -> 69 ;
70 [label="Bytes <= 1772.5\ngini = 0.0\nsamples = 526104\nvalue = [526096, 8]\nclass = 0", fillcolor="#e58139"] ;
34 -> 70 ;
71 [label="Packets <= 7.5\ngini = 0.024\nsamples = 163\nvalue = [161, 2]\nclass = 0", fillcolor="#e5833b"] ;
70 -> 71 ;
72 [label="gini = 0.0\nsamples = 126\nvalue = [126, 0]\nclass = 0", fillcolor="#e58139"] ;
71 -> 72 ;
73 [label="Packets <= 8.5\ngini = 0.102\nsamples = 37\nvalue = [35, 2]\nclass = 0", fillcolor="#e68844"] ;
71 -> 73 ;
74 [label="Src_Pt <= 4368.5\ngini = 0.346\nsamples = 9\nvalue = [7, 2]\nclass = 0", fillcolor="#eca572"] ;
73 -> 74 ;
75 [label="gini = 0.0\nsamples = 1\nvalue = [0, 1]\nclass = 1", fillcolor="#399de5"] ;
74 -> 75 ;
76 [label="Src_Pt <= 25503.0\ngini = 0.219\nsamples = 8\nvalue = [7, 1]\nclass = 0", fillcolor="#e99355"] ;
74 -> 76 ;
77 [label="gini = 0.0\nsamples = 7\nvalue = [7, 0]\nclass = 0", fillcolor="#e58139"] ;
76 -> 77 ;
78 [label="gini = 0.0\nsamples = 1\nvalue = [0, 1]\nclass = 1", fillcolor="#399de5"] ;
76 -> 78 ;
79 [label="gini = 0.0\nsamples = 28\nvalue = [28, 0]\nclass = 0", fillcolor="#e58139"] ;
73 -> 79 ;
80 [label="Src_IP <= 0.5\ngini = 0.0\nsamples = 525941\nvalue = [525935, 6]\nclass = 0", fillcolor="#e58139"] ;
70 -> 80 ;
81 [label="Dst_Pt <= 3786.0\ngini = 0.0\nsamples = 239128\nvalue = [239122, 6]\nclass = 0", fillcolor="#e58139"] ;
80 -> 81 ;
82 [label="Dst_IP <= 0.5\ngini = 0.0\nsamples = 233744\nvalue = [233743, 1]\nclass = 0", fillcolor="#e58139"] ;
81 -> 82 ;
83 [label="Bytes <= 2133.5\ngini = 0.001\nsamples = 3690\nvalue = [3689, 1]\nclass = 0", fillcolor="#e58139"] ;
82 -> 83 ;
84 [label="Bytes <= 2125.5\ngini = 0.008\nsamples = 235\nvalue = [234, 1]\nclass = 0", fillcolor="#e5823a"] ;
83 -> 84 ;
85 [label="gini = 0.0\nsamples = 232\nvalue = [232, 0]\nclass = 0", fillcolor="#e58139"] ;
84 -> 85 ;
86 [label="Duration <= 332.5\ngini = 0.444\nsamples = 3\nvalue = [2, 1]\nclass = 0", fillcolor="#f2c09c"] ;
84 -> 86 ;
87 [label="gini = 0.0\nsamples = 1\nvalue = [0, 1]\nclass = 1", fillcolor="#399de5"] ;
86 -> 87 ;
88 [label="gini = 0.0\nsamples = 2\nvalue = [2, 0]\nclass = 0", fillcolor="#e58139"] ;
86 -> 88 ;
89 [label="gini = 0.0\nsamples = 3455\nvalue = [3455, 0]\nclass = 0", fillcolor="#e58139"] ;
83 -> 89 ;
90 [label="gini = 0.0\nsamples = 230054\nvalue = [230054, 0]\nclass = 0", fillcolor="#e58139"] ;
82 -> 90 ;
91 [label="Dst_Pt <= 3968.5\ngini = 0.002\nsamples = 5384\nvalue = [5379, 5]\nclass = 0", fillcolor="#e58139"] ;
81 -> 91 ;
92 [label="gini = 0.0\nsamples = 1\nvalue = [0, 1]\nclass = 1", fillcolor="#399de5"] ;
91 -> 92 ;
93 [label="Packets <= 4.5\ngini = 0.001\nsamples = 5383\nvalue = [5379, 4]\nclass = 0", fillcolor="#e58139"] ;
91 -> 93 ;
94 [label="Bytes <= 15001.5\ngini = 0.009\nsamples = 461\nvalue = [459, 2]\nclass = 0", fillcolor="#e5823a"] ;
93 -> 94 ;
95 [label="Dst_Pt <= 25952.5\ngini = 0.004\nsamples = 458\nvalue = [457, 1]\nclass = 0", fillcolor="#e58139"] ;
94 -> 95 ;
96 [label="gini = 0.0\nsamples = 453\nvalue = [453, 0]\nclass = 0", fillcolor="#e58139"] ;
95 -> 96 ;
97 [label="Packets <= 2.5\ngini = 0.32\nsamples = 5\nvalue = [4, 1]\nclass = 0", fillcolor="#eca06a"] ;
95 -> 97 ;
98 [label="gini = 0.0\nsamples = 4\nvalue = [4, 0]\nclass = 0", fillcolor="#e58139"] ;
97 -> 98 ;
99 [label="gini = 0.0\nsamples = 1\nvalue = [0, 1]\nclass = 1", fillcolor="#399de5"] ;
97 -> 99 ;
100 [label="Duration <= 109.5\ngini = 0.444\nsamples = 3\nvalue = [2, 1]\nclass = 0", fillcolor="#f2c09c"] ;
94 -> 100 ;
101 [label="gini = 0.0\nsamples = 2\nvalue = [2, 0]\nclass = 0", fillcolor="#e58139"] ;
100 -> 101 ;
102 [label="gini = 0.0\nsamples = 1\nvalue = [0, 1]\nclass = 1", fillcolor="#399de5"] ;
100 -> 102 ;
103 [label="Bytes <= 2113.5\ngini = 0.001\nsamples = 4922\nvalue = [4920, 2]\nclass = 0", fillcolor="#e58139"] ;
93 -> 103 ;
104 [label="Src_Pt <= 16269.0\ngini = 0.01\nsamples = 199\nvalue = [198, 1]\nclass = 0", fillcolor="#e5823a"] ;
103 -> 104 ;
105 [label="gini = 0.0\nsamples = 156\nvalue = [156, 0]\nclass = 0", fillcolor="#e58139"] ;
104 -> 105 ;
106 [label="Src_Pt <= 17000.0\ngini = 0.045\nsamples = 43\nvalue = [42, 1]\nclass = 0", fillcolor="#e6843e"] ;
104 -> 106 ;
107 [label="gini = 0.0\nsamples = 1\nvalue = [0, 1]\nclass = 1", fillcolor="#399de5"] ;
106 -> 107 ;
108 [label="gini = 0.0\nsamples = 42\nvalue = [42, 0]\nclass = 0", fillcolor="#e58139"] ;
106 -> 108 ;
109 [label="Src_Pt <= 23531.0\ngini = 0.0\nsamples = 4723\nvalue = [4722, 1]\nclass = 0", fillcolor="#e58139"] ;
103 -> 109 ;
110 [label="gini = 0.0\nsamples = 4052\nvalue = [4052, 0]\nclass = 0", fillcolor="#e58139"] ;
109 -> 110 ;
111 [label="Src_Pt <= 23545.5\ngini = 0.003\nsamples = 671\nvalue = [670, 1]\nclass = 0", fillcolor="#e58139"] ;
109 -> 111 ;
112 [label="Bytes <= 6469.0\ngini = 0.5\nsamples = 2\nvalue = [1, 1]\nclass = 0", fillcolor="#ffffff"] ;
111 -> 112 ;
113 [label="gini = 0.0\nsamples = 1\nvalue = [1, 0]\nclass = 0", fillcolor="#e58139"] ;
112 -> 113 ;
114 [label="gini = 0.0\nsamples = 1\nvalue = [0, 1]\nclass = 1", fillcolor="#399de5"] ;
112 -> 114 ;
115 [label="gini = 0.0\nsamples = 669\nvalue = [669, 0]\nclass = 0", fillcolor="#e58139"] ;
111 -> 115 ;
116 [label="gini = 0.0\nsamples = 286813\nvalue = [286813, 0]\nclass = 0", fillcolor="#e58139"] ;
80 -> 116 ;
117 [label="Duration <= 1.5\ngini = 0.001\nsamples = 2279243\nvalue = [2278611, 632]\nclass = 0", fillcolor="#e58139"] ;
33 -> 117 ;
118 [label="Bytes <= 448.0\ngini = 0.074\nsamples = 906\nvalue = [871, 35]\nclass = 0", fillcolor="#e68641"] ;
117 -> 118 ;
119 [label="Dst_Pt <= 1661.5\ngini = 0.444\nsamples = 18\nvalue = [12, 6]\nclass = 0", fillcolor="#f2c09c"] ;
118 -> 119 ;
120 [label="Dst_IP <= 0.5\ngini = 0.245\nsamples = 7\nvalue = [1, 6]\nclass = 1", fillcolor="#5aade9"] ;
119 -> 120 ;
121 [label="gini = 0.0\nsamples = 6\nvalue = [0, 6]\nclass = 1", fillcolor="#399de5"] ;
120 -> 121 ;
122 [label="gini = 0.0\nsamples = 1\nvalue = [1, 0]\nclass = 0", fillcolor="#e58139"] ;
120 -> 122 ;
123 [label="gini = 0.0\nsamples = 11\nvalue = [11, 0]\nclass = 0", fillcolor="#e58139"] ;
119 -> 123 ;
124 [label="Dst_IP <= 0.5\ngini = 0.063\nsamples = 888\nvalue = [859, 29]\nclass = 0", fillcolor="#e68540"] ;
118 -> 124 ;
125 [label="Bytes <= 679.5\ngini = 0.079\nsamples = 704\nvalue = [675, 29]\nclass = 0", fillcolor="#e68642"] ;
124 -> 125 ;
126 [label="Bytes <= 571.5\ngini = 0.063\nsamples = 588\nvalue = [569, 19]\nclass = 0", fillcolor="#e68540"] ;
125 -> 126 ;
127 [label="Bytes <= 570.5\ngini = 0.084\nsamples = 408\nvalue = [390, 18]\nclass = 0", fillcolor="#e68742"] ;
126 -> 127 ;
128 [label="Dst_Pt <= 16855.0\ngini = 0.08\nsamples = 407\nvalue = [390, 17]\nclass = 0", fillcolor="#e68642"] ;
127 -> 128 ;
129 [label="Dst_Pt <= 16711.5\ngini = 0.11\nsamples = 258\nvalue = [243, 15]\nclass = 0", fillcolor="#e78945"] ;
128 -> 129 ;
130 [label="Dst_Pt <= 16288.5\ngini = 0.103\nsamples = 257\nvalue = [243, 14]\nclass = 0", fillcolor="#e68844"] ;
129 -> 130 ;
131 [label="Dst_Pt <= 10031.0\ngini = 0.091\nsamples = 250\nvalue = [238, 12]\nclass = 0", fillcolor="#e68743"] ;
130 -> 131 ;
132 [label="Dst_Pt <= 9913.5\ngini = 0.119\nsamples = 173\nvalue = [162, 11]\nclass = 0", fillcolor="#e78a46"] ;
131 -> 132 ;
133 [label="Dst_Pt <= 9446.5\ngini = 0.11\nsamples = 172\nvalue = [162, 10]\nclass = 0", fillcolor="#e78945"] ;
132 -> 133 ;
134 [label="Dst_Pt <= 7124.5\ngini = 0.092\nsamples = 165\nvalue = [157, 8]\nclass = 0", fillcolor="#e68743"] ;
133 -> 134 ;
135 [label="Dst_Pt <= 6909.5\ngini = 0.112\nsamples = 134\nvalue = [126, 8]\nclass = 0", fillcolor="#e78946"] ;
134 -> 135 ;
136 [label="Src_Pt <= 29636.5\ngini = 0.087\nsamples = 132\nvalue = [126, 6]\nclass = 0", fillcolor="#e68742"] ;
135 -> 136 ;
137 [label="Dst_Pt <= 3856.0\ngini = 0.076\nsamples = 126\nvalue = [121, 5]\nclass = 0", fillcolor="#e68641"] ;
136 -> 137 ;
138 [label="Dst_Pt <= 3790.0\ngini = 0.096\nsamples = 99\nvalue = [94, 5]\nclass = 0", fillcolor="#e68844"] ;
137 -> 138 ;
139 [label="Src_Pt <= 9307.5\ngini = 0.06\nsamples = 97\nvalue = [94, 3]\nclass = 0", fillcolor="#e6853f"] ;
138 -> 139 ;
140 [label="gini = 0.0\nsamples = 47\nvalue = [47, 0]\nclass = 0", fillcolor="#e58139"] ;
139 -> 140 ;
141 [label="Src_Pt <= 9635.5\ngini = 0.113\nsamples = 50\nvalue = [47, 3]\nclass = 0", fillcolor="#e78946"] ;
139 -> 141 ;
142 [label="gini = 0.0\nsamples = 1\nvalue = [0, 1]\nclass = 1", fillcolor="#399de5"] ;
141 -> 142 ;
143 [label="Src_Pt <= 21715.0\ngini = 0.078\nsamples = 49\nvalue = [47, 2]\nclass = 0", fillcolor="#e68641"] ;
141 -> 143 ;
144 [label="Src_Pt <= 21472.5\ngini = 0.147\nsamples = 25\nvalue = [23, 2]\nclass = 0", fillcolor="#e78c4a"] ;
143 -> 144 ;
145 [label="Src_Pt <= 20165.5\ngini = 0.08\nsamples = 24\nvalue = [23, 1]\nclass = 0", fillcolor="#e68642"] ;
144 -> 145 ;
146 [label="gini = 0.0\nsamples = 19\nvalue = [19, 0]\nclass = 0", fillcolor="#e58139"] ;
145 -> 146 ;
147 [label="Src_Pt <= 20391.0\ngini = 0.32\nsamples = 5\nvalue = [4, 1]\nclass = 0", fillcolor="#eca06a"] ;
145 -> 147 ;
148 [label="gini = 0.0\nsamples = 1\nvalue = [0, 1]\nclass = 1", fillcolor="#399de5"] ;
147 -> 148 ;
149 [label="gini = 0.0\nsamples = 4\nvalue = [4, 0]\nclass = 0", fillcolor="#e58139"] ;
147 -> 149 ;
150 [label="gini = 0.0\nsamples = 1\nvalue = [0, 1]\nclass = 1", fillcolor="#399de5"] ;
144 -> 150 ;
151 [label="gini = 0.0\nsamples = 24\nvalue = [24, 0]\nclass = 0", fillcolor="#e58139"] ;
143 -> 151 ;
152 [label="gini = 0.0\nsamples = 2\nvalue = [0, 2]\nclass = 1", fillcolor="#399de5"] ;
138 -> 152 ;
153 [label="gini = 0.0\nsamples = 27\nvalue = [27, 0]\nclass = 0", fillcolor="#e58139"] ;
137 -> 153 ;
154 [label="Src_Pt <= 29818.5\ngini = 0.278\nsamples = 6\nvalue = [5, 1]\nclass = 0", fillcolor="#ea9a61"] ;
136 -> 154 ;
155 [label="gini = 0.0\nsamples = 1\nvalue = [0, 1]\nclass = 1", fillcolor="#399de5"] ;
154 -> 155 ;
156 [label="gini = 0.0\nsamples = 5\nvalue = [5, 0]\nclass = 0", fillcolor="#e58139"] ;
154 -> 156 ;
157 [label="gini = 0.0\nsamples = 2\nvalue = [0, 2]\nclass = 1", fillcolor="#399de5"] ;
135 -> 157 ;
158 [label="gini = 0.0\nsamples = 31\nvalue = [31, 0]\nclass = 0", fillcolor="#e58139"] ;
134 -> 158 ;
159 [label="Dst_Pt <= 9546.0\ngini = 0.408\nsamples = 7\nvalue = [5, 2]\nclass = 0", fillcolor="#efb388"] ;
133 -> 159 ;
160 [label="gini = 0.0\nsamples = 1\nvalue = [0, 1]\nclass = 1", fillcolor="#399de5"] ;
159 -> 160 ;
161 [label="Bytes <= 561.0\ngini = 0.278\nsamples = 6\nvalue = [5, 1]\nclass = 0", fillcolor="#ea9a61"] ;
159 -> 161 ;
162 [label="gini = 0.0\nsamples = 1\nvalue = [0, 1]\nclass = 1", fillcolor="#399de5"] ;
161 -> 162 ;
163 [label="gini = 0.0\nsamples = 5\nvalue = [5, 0]\nclass = 0", fillcolor="#e58139"] ;
161 -> 163 ;
164 [label="gini = 0.0\nsamples = 1\nvalue = [0, 1]\nclass = 1", fillcolor="#399de5"] ;
132 -> 164 ;
165 [label="Bytes <= 550.5\ngini = 0.026\nsamples = 77\nvalue = [76, 1]\nclass = 0", fillcolor="#e5833c"] ;
131 -> 165 ;
166 [label="Dst_Pt <= 12328.5\ngini = 0.133\nsamples = 14\nvalue = [13, 1]\nclass = 0", fillcolor="#e78b48"] ;
165 -> 166 ;
167 [label="Bytes <= 548.5\ngini = 0.444\nsamples = 3\nvalue = [2, 1]\nclass = 0", fillcolor="#f2c09c"] ;
166 -> 167 ;
168 [label="gini = 0.0\nsamples = 2\nvalue = [2, 0]\nclass = 0", fillcolor="#e58139"] ;
167 -> 168 ;
169 [label="gini = 0.0\nsamples = 1\nvalue = [0, 1]\nclass = 1", fillcolor="#399de5"] ;
167 -> 169 ;
170 [label="gini = 0.0\nsamples = 11\nvalue = [11, 0]\nclass = 0", fillcolor="#e58139"] ;
166 -> 170 ;
171 [label="gini = 0.0\nsamples = 63\nvalue = [63, 0]\nclass = 0", fillcolor="#e58139"] ;
165 -> 171 ;
172 [label="Dst_Pt <= 16328.5\ngini = 0.408\nsamples = 7\nvalue = [5, 2]\nclass = 0", fillcolor="#efb388"] ;
130 -> 172 ;
173 [label="Dst_Pt <= 16302.5\ngini = 0.444\nsamples = 3\nvalue = [1, 2]\nclass = 1", fillcolor="#9ccef2"] ;
172 -> 173 ;
174 [label="gini = 0.0\nsamples = 1\nvalue = [0, 1]\nclass = 1", fillcolor="#399de5"] ;
173 -> 174 ;
175 [label="Bytes <= 561.0\ngini = 0.5\nsamples = 2\nvalue = [1, 1]\nclass = 0", fillcolor="#ffffff"] ;
173 -> 175 ;
176 [label="gini = 0.0\nsamples = 1\nvalue = [0, 1]\nclass = 1", fillcolor="#399de5"] ;
175 -> 176 ;
177 [label="gini = 0.0\nsamples = 1\nvalue = [1, 0]\nclass = 0", fillcolor="#e58139"] ;
175 -> 177 ;
178 [label="gini = 0.0\nsamples = 4\nvalue = [4, 0]\nclass = 0", fillcolor="#e58139"] ;
172 -> 178 ;
179 [label="gini = 0.0\nsamples = 1\nvalue = [0, 1]\nclass = 1", fillcolor="#399de5"] ;
129 -> 179 ;
180 [label="Dst_Pt <= 26219.0\ngini = 0.026\nsamples = 149\nvalue = [147, 2]\nclass = 0", fillcolor="#e5833c"] ;
128 -> 180 ;
181 [label="Dst_Pt <= 26134.0\ngini = 0.04\nsamples = 99\nvalue = [97, 2]\nclass = 0", fillcolor="#e6843d"] ;
180 -> 181 ;
182 [label="Dst_Pt <= 20783.5\ngini = 0.02\nsamples = 98\nvalue = [97, 1]\nclass = 0", fillcolor="#e5823b"] ;
181 -> 182 ;
183 [label="Dst_Pt <= 20719.0\ngini = 0.044\nsamples = 44\nvalue = [43, 1]\nclass = 0", fillcolor="#e6843e"] ;
182 -> 183 ;
184 [label="gini = 0.0\nsamples = 43\nvalue = [43, 0]\nclass = 0", fillcolor="#e58139"] ;
183 -> 184 ;
185 [label="gini = 0.0\nsamples = 1\nvalue = [0, 1]\nclass = 1", fillcolor="#399de5"] ;
183 -> 185 ;
186 [label="gini = 0.0\nsamples = 54\nvalue = [54, 0]\nclass = 0", fillcolor="#e58139"] ;
182 -> 186 ;
187 [label="gini = 0.0\nsamples = 1\nvalue = [0, 1]\nclass = 1", fillcolor="#399de5"] ;
181 -> 187 ;
188 [label="gini = 0.0\nsamples = 50\nvalue = [50, 0]\nclass = 0", fillcolor="#e58139"] ;
180 -> 188 ;
189 [label="gini = 0.0\nsamples = 1\nvalue = [0, 1]\nclass = 1", fillcolor="#399de5"] ;
127 -> 189 ;
190 [label="Bytes <= 594.0\ngini = 0.011\nsamples = 180\nvalue = [179, 1]\nclass = 0", fillcolor="#e5823a"] ;
126 -> 190 ;
191 [label="gini = 0.0\nsamples = 155\nvalue = [155, 0]\nclass = 0", fillcolor="#e58139"] ;
190 -> 191 ;
192 [label="Bytes <= 595.5\ngini = 0.077\nsamples = 25\nvalue = [24, 1]\nclass = 0", fillcolor="#e68641"] ;
190 -> 192 ;
193 [label="Src_Pt <= 5446.0\ngini = 0.32\nsamples = 5\nvalue = [4, 1]\nclass = 0", fillcolor="#eca06a"] ;
192 -> 193 ;
194 [label="gini = 0.0\nsamples = 1\nvalue = [0, 1]\nclass = 1", fillcolor="#399de5"] ;
193 -> 194 ;
195 [label="gini = 0.0\nsamples = 4\nvalue = [4, 0]\nclass = 0", fillcolor="#e58139"] ;
193 -> 195 ;
196 [label="gini = 0.0\nsamples = 20\nvalue = [20, 0]\nclass = 0", fillcolor="#e58139"] ;
192 -> 196 ;
197 [label="Dst_Pt <= 3826.0\ngini = 0.158\nsamples = 116\nvalue = [106, 10]\nclass = 0", fillcolor="#e78d4c"] ;
125 -> 197 ;
198 [label="Src_Pt <= 25408.5\ngini = 0.366\nsamples = 29\nvalue = [22, 7]\nclass = 0", fillcolor="#eda978"] ;
197 -> 198 ;
199 [label="Dst_Pt <= 1697.0\ngini = 0.337\nsamples = 28\nvalue = [22, 6]\nclass = 0", fillcolor="#eca36f"] ;
198 -> 199 ;
200 [label="Src_Pt <= 1420.5\ngini = 0.188\nsamples = 19\nvalue = [17, 2]\nclass = 0", fillcolor="#e89050"] ;
199 -> 200 ;
201 [label="gini = 0.0\nsamples = 10\nvalue = [10, 0]\nclass = 0", fillcolor="#e58139"] ;
200 -> 201 ;
202 [label="Src_Pt <= 3539.5\ngini = 0.346\nsamples = 9\nvalue = [7, 2]\nclass = 0", fillcolor="#eca572"] ;
200 -> 202 ;
203 [label="gini = 0.0\nsamples = 2\nvalue = [0, 2]\nclass = 1", fillcolor="#399de5"] ;
202 -> 203 ;
204 [label="gini = 0.0\nsamples = 7\nvalue = [7, 0]\nclass = 0", fillcolor="#e58139"] ;
202 -> 204 ;
205 [label="Packets <= 4.0\ngini = 0.494\nsamples = 9\nvalue = [5, 4]\nclass = 0", fillcolor="#fae6d7"] ;
199 -> 205 ;
206 [label="Dst_Pt <= 1910.0\ngini = 0.408\nsamples = 7\nvalue = [5, 2]\nclass = 0", fillcolor="#efb388"] ;
205 -> 206 ;
207 [label="gini = 0.0\nsamples = 1\nvalue = [0, 1]\nclass = 1", fillcolor="#399de5"] ;
206 -> 207 ;
208 [label="Dst_Pt <= 3250.0\ngini = 0.278\nsamples = 6\nvalue = [5, 1]\nclass = 0", fillcolor="#ea9a61"] ;
206 -> 208 ;
209 [label="gini = 0.0\nsamples = 5\nvalue = [5, 0]\nclass = 0", fillcolor="#e58139"] ;
208 -> 209 ;
210 [label="gini = 0.0\nsamples = 1\nvalue = [0, 1]\nclass = 1", fillcolor="#399de5"] ;
208 -> 210 ;
211 [label="gini = 0.0\nsamples = 2\nvalue = [0, 2]\nclass = 1", fillcolor="#399de5"] ;
205 -> 211 ;
212 [label="gini = 0.0\nsamples = 1\nvalue = [0, 1]\nclass = 1", fillcolor="#399de5"] ;
198 -> 212 ;
213 [label="Bytes <= 2055.5\ngini = 0.067\nsamples = 87\nvalue = [84, 3]\nclass = 0", fillcolor="#e68640"] ;
197 -> 213 ;
214 [label="gini = 0.0\nsamples = 41\nvalue = [41, 0]\nclass = 0", fillcolor="#e58139"] ;
213 -> 214 ;
215 [label="Bytes <= 2360.0\ngini = 0.122\nsamples = 46\nvalue = [43, 3]\nclass = 0", fillcolor="#e78a47"] ;
213 -> 215 ;
216 [label="Bytes <= 2264.0\ngini = 0.337\nsamples = 14\nvalue = [11, 3]\nclass = 0", fillcolor="#eca36f"] ;
215 -> 216 ;
217 [label="Dst_Pt <= 12823.5\ngini = 0.26\nsamples = 13\nvalue = [11, 2]\nclass = 0", fillcolor="#ea985d"] ;
216 -> 217 ;
218 [label="gini = 0.0\nsamples = 4\nvalue = [4, 0]\nclass = 0", fillcolor="#e58139"] ;
217 -> 218 ;
219 [label="Dst_Pt <= 13469.0\ngini = 0.346\nsamples = 9\nvalue = [7, 2]\nclass = 0", fillcolor="#eca572"] ;
217 -> 219 ;
220 [label="gini = 0.0\nsamples = 1\nvalue = [0, 1]\nclass = 1", fillcolor="#399de5"] ;
219 -> 220 ;
221 [label="Bytes <= 2065.5\ngini = 0.219\nsamples = 8\nvalue = [7, 1]\nclass = 0", fillcolor="#e99355"] ;
219 -> 221 ;
222 [label="Dst_Pt <= 21251.0\ngini = 0.444\nsamples = 3\nvalue = [2, 1]\nclass = 0", fillcolor="#f2c09c"] ;
221 -> 222 ;
223 [label="gini = 0.0\nsamples = 1\nvalue = [0, 1]\nclass = 1", fillcolor="#399de5"] ;
222 -> 223 ;
224 [label="gini = 0.0\nsamples = 2\nvalue = [2, 0]\nclass = 0", fillcolor="#e58139"] ;
222 -> 224 ;
225 [label="gini = 0.0\nsamples = 5\nvalue = [5, 0]\nclass = 0", fillcolor="#e58139"] ;
221 -> 225 ;
226 [label="gini = 0.0\nsamples = 1\nvalue = [0, 1]\nclass = 1", fillcolor="#399de5"] ;
216 -> 226 ;
227 [label="gini = 0.0\nsamples = 32\nvalue = [32, 0]\nclass = 0", fillcolor="#e58139"] ;
215 -> 227 ;
228 [label="gini = 0.0\nsamples = 184\nvalue = [184, 0]\nclass = 0", fillcolor="#e58139"] ;
124 -> 228 ;
229 [label="Bytes <= 254.0\ngini = 0.001\nsamples = 2278337\nvalue = [2277740, 597]\nclass = 0", fillcolor="#e58139"] ;
117 -> 229 ;
230 [label="Dst_Pt <= 22.5\ngini = 0.112\nsamples = 336\nvalue = [316, 20]\nclass = 0", fillcolor="#e78946"] ;
229 -> 230 ;
231 [label="gini = 0.0\nsamples = 20\nvalue = [0, 20]\nclass = 1", fillcolor="#399de5"] ;
230 -> 231 ;
232 [label="gini = 0.0\nsamples = 316\nvalue = [316, 0]\nclass = 0", fillcolor="#e58139"] ;
230 -> 232 ;
233 [label="Src_IP <= 0.5\ngini = 0.001\nsamples = 2278001\nvalue = [2277424, 577]\nclass = 0", fillcolor="#e58139"] ;
229 -> 233 ;
234 [label="Dst_IP <= 0.5\ngini = 0.001\nsamples = 1145741\nvalue = [1145164, 577]\nclass = 0", fillcolor="#e58139"] ;
233 -> 234 ;
235 [label="Src_Pt <= 11512.5\ngini = 0.06\nsamples = 18493\nvalue = [17916, 577]\nclass = 0", fillcolor="#e6853f"] ;
234 -> 235 ;
236 [label="Bytes <= 574.5\ngini = 0.038\nsamples = 12289\nvalue = [12050, 239]\nclass = 0", fillcolor="#e6833d"] ;
235 -> 236 ;
237 [label="Bytes <= 566.5\ngini = 0.097\nsamples = 2221\nvalue = [2108, 113]\nclass = 0", fillcolor="#e68844"] ;
236 -> 237 ;
238 [label="Src_Pt <= 7981.5\ngini = 0.038\nsamples = 1072\nvalue = [1051, 21]\nclass = 0", fillcolor="#e6843d"] ;
237 -> 238 ;
239 [label="Bytes <= 548.5\ngini = 0.029\nsamples = 1032\nvalue = [1017, 15]\nclass = 0", fillcolor="#e5833c"] ;
238 -> 239 ;
240 [label="Src_Pt <= 1142.0\ngini = 0.006\nsamples = 693\nvalue = [691, 2]\nclass = 0", fillcolor="#e5813a"] ;
239 -> 240 ;
241 [label="gini = 0.0\nsamples = 627\nvalue = [627, 0]\nclass = 0", fillcolor="#e58139"] ;
240 -> 241 ;
242 [label="Bytes <= 447.5\ngini = 0.059\nsamples = 66\nvalue = [64, 2]\nclass = 0", fillcolor="#e6853f"] ;
240 -> 242 ;
243 [label="gini = 0.0\nsamples = 2\nvalue = [0, 2]\nclass = 1", fillcolor="#399de5"] ;
242 -> 243 ;
244 [label="gini = 0.0\nsamples = 64\nvalue = [64, 0]\nclass = 0", fillcolor="#e58139"] ;
242 -> 244 ;
245 [label="Dst_Pt <= 16672.5\ngini = 0.074\nsamples = 339\nvalue = [326, 13]\nclass = 0", fillcolor="#e68641"] ;
239 -> 245 ;
246 [label="Duration <= 28.5\ngini = 0.043\nsamples = 226\nvalue = [221, 5]\nclass = 0", fillcolor="#e6843d"] ;
245 -> 246 ;
247 [label="Dst_Pt <= 2287.5\ngini = 0.084\nsamples = 114\nvalue = [109, 5]\nclass = 0", fillcolor="#e68742"] ;
246 -> 247 ;
248 [label="Dst_Pt <= 1943.0\ngini = 0.231\nsamples = 15\nvalue = [13, 2]\nclass = 0", fillcolor="#e99457"] ;
247 -> 248 ;
249 [label="gini = 0.0\nsamples = 12\nvalue = [12, 0]\nclass = 0", fillcolor="#e58139"] ;
248 -> 249 ;
250 [label="Duration <= 19.0\ngini = 0.444\nsamples = 3\nvalue = [1, 2]\nclass = 1", fillcolor="#9ccef2"] ;
248 -> 250 ;
251 [label="gini = 0.0\nsamples = 1\nvalue = [1, 0]\nclass = 0", fillcolor="#e58139"] ;
250 -> 251 ;
252 [label="gini = 0.0\nsamples = 2\nvalue = [0, 2]\nclass = 1", fillcolor="#399de5"] ;
250 -> 252 ;
253 [label="Dst_Pt <= 11926.5\ngini = 0.059\nsamples = 99\nvalue = [96, 3]\nclass = 0", fillcolor="#e6853f"] ;
247 -> 253 ;
254 [label="Dst_Pt <= 11841.5\ngini = 0.088\nsamples = 65\nvalue = [62, 3]\nclass = 0", fillcolor="#e68743"] ;
253 -> 254 ;
255 [label="Dst_Pt <= 7952.0\ngini = 0.061\nsamples = 64\nvalue = [62, 2]\nclass = 0", fillcolor="#e6853f"] ;
254 -> 255 ;
256 [label="Dst_Pt <= 7847.0\ngini = 0.114\nsamples = 33\nvalue = [31, 2]\nclass = 0", fillcolor="#e78946"] ;
255 -> 256 ;
257 [label="Duration <= 18.5\ngini = 0.061\nsamples = 32\nvalue = [31, 1]\nclass = 0", fillcolor="#e6853f"] ;
256 -> 257 ;
258 [label="Bytes <= 550.5\ngini = 0.198\nsamples = 9\nvalue = [8, 1]\nclass = 0", fillcolor="#e89152"] ;
257 -> 258 ;
259 [label="gini = 0.0\nsamples = 5\nvalue = [5, 0]\nclass = 0", fillcolor="#e58139"] ;
258 -> 259 ;
260 [label="Dst_Pt <= 4213.0\ngini = 0.375\nsamples = 4\nvalue = [3, 1]\nclass = 0", fillcolor="#eeab7b"] ;
258 -> 260 ;
261 [label="gini = 0.0\nsamples = 2\nvalue = [2, 0]\nclass = 0", fillcolor="#e58139"] ;
260 -> 261 ;
262 [label="Dst_Pt <= 4997.0\ngini = 0.5\nsamples = 2\nvalue = [1, 1]\nclass = 0", fillcolor="#ffffff"] ;
260 -> 262 ;
263 [label="gini = 0.0\nsamples = 1\nvalue = [0, 1]\nclass = 1", fillcolor="#399de5"] ;
262 -> 263 ;
264 [label="gini = 0.0\nsamples = 1\nvalue = [1, 0]\nclass = 0", fillcolor="#e58139"] ;
262 -> 264 ;
265 [label="gini = 0.0\nsamples = 23\nvalue = [23, 0]\nclass = 0", fillcolor="#e58139"] ;
257 -> 265 ;
266 [label="gini = 0.0\nsamples = 1\nvalue = [0, 1]\nclass = 1", fillcolor="#399de5"] ;
256 -> 266 ;
267 [label="gini = 0.0\nsamples = 31\nvalue = [31, 0]\nclass = 0", fillcolor="#e58139"] ;
255 -> 267 ;
268 [label="gini = 0.0\nsamples = 1\nvalue = [0, 1]\nclass = 1", fillcolor="#399de5"] ;
254 -> 268 ;
269 [label="gini = 0.0\nsamples = 34\nvalue = [34, 0]\nclass = 0", fillcolor="#e58139"] ;
253 -> 269 ;
270 [label="gini = 0.0\nsamples = 112\nvalue = [112, 0]\nclass = 0", fillcolor="#e58139"] ;
246 -> 270 ;
271 [label="Dst_Pt <= 16799.5\ngini = 0.132\nsamples = 113\nvalue = [105, 8]\nclass = 0", fillcolor="#e78b48"] ;
245 -> 271 ;
272 [label="gini = 0.0\nsamples = 2\nvalue = [0, 2]\nclass = 1", fillcolor="#399de5"] ;
271 -> 272 ;
273 [label="Dst_Pt <= 24572.5\ngini = 0.102\nsamples = 111\nvalue = [105, 6]\nclass = 0", fillcolor="#e68844"] ;
271 -> 273 ;
274 [label="Dst_Pt <= 24328.0\ngini = 0.16\nsamples = 57\nvalue = [52, 5]\nclass = 0", fillcolor="#e88d4c"] ;
273 -> 274 ;
275 [label="Duration <= 25.5\ngini = 0.133\nsamples = 56\nvalue = [52, 4]\nclass = 0", fillcolor="#e78b48"] ;
274 -> 275 ;
276 [label="Bytes <= 550.5\ngini = 0.051\nsamples = 38\nvalue = [37, 1]\nclass = 0", fillcolor="#e6843e"] ;
275 -> 276 ;
277 [label="Duration <= 24.5\ngini = 0.198\nsamples = 9\nvalue = [8, 1]\nclass = 0", fillcolor="#e89152"] ;
276 -> 277 ;
278 [label="gini = 0.0\nsamples = 7\nvalue = [7, 0]\nclass = 0", fillcolor="#e58139"] ;
277 -> 278 ;
279 [label="Dst_Pt <= 19858.0\ngini = 0.5\nsamples = 2\nvalue = [1, 1]\nclass = 0", fillcolor="#ffffff"] ;
277 -> 279 ;
280 [label="gini = 0.0\nsamples = 1\nvalue = [1, 0]\nclass = 0", fillcolor="#e58139"] ;
279 -> 280 ;
281 [label="gini = 0.0\nsamples = 1\nvalue = [0, 1]\nclass = 1", fillcolor="#399de5"] ;
279 -> 281 ;
282 [label="gini = 0.0\nsamples = 29\nvalue = [29, 0]\nclass = 0", fillcolor="#e58139"] ;
276 -> 282 ;
283 [label="Dst_Pt <= 19775.5\ngini = 0.278\nsamples = 18\nvalue = [15, 3]\nclass = 0", fillcolor="#ea9a61"] ;
275 -> 283 ;
284 [label="gini = 0.0\nsamples = 6\nvalue = [6, 0]\nclass = 0", fillcolor="#e58139"] ;
283 -> 284 ;
285 [label="Dst_Pt <= 20177.5\ngini = 0.375\nsamples = 12\nvalue = [9, 3]\nclass = 0", fillcolor="#eeab7b"] ;
283 -> 285 ;
286 [label="gini = 0.0\nsamples = 1\nvalue = [0, 1]\nclass = 1", fillcolor="#399de5"] ;
285 -> 286 ;
287 [label="Dst_Pt <= 22396.0\ngini = 0.298\nsamples = 11\nvalue = [9, 2]\nclass = 0", fillcolor="#eb9d65"] ;
285 -> 287 ;
288 [label="gini = 0.0\nsamples = 4\nvalue = [4, 0]\nclass = 0", fillcolor="#e58139"] ;
287 -> 288 ;
289 [label="Dst_Pt <= 23229.0\ngini = 0.408\nsamples = 7\nvalue = [5, 2]\nclass = 0", fillcolor="#efb388"] ;
287 -> 289 ;
290 [label="Duration <= 70.0\ngini = 0.444\nsamples = 3\nvalue = [1, 2]\nclass = 1", fillcolor="#9ccef2"] ;
289 -> 290 ;
291 [label="gini = 0.0\nsamples = 1\nvalue = [0, 1]\nclass = 1", fillcolor="#399de5"] ;
290 -> 291 ;
292 [label="Dst_Pt <= 23100.0\ngini = 0.5\nsamples = 2\nvalue = [1, 1]\nclass = 0", fillcolor="#ffffff"] ;
290 -> 292 ;
293 [label="gini = 0.0\nsamples = 1\nvalue = [1, 0]\nclass = 0", fillcolor="#e58139"] ;
292 -> 293 ;
294 [label="gini = 0.0\nsamples = 1\nvalue = [0, 1]\nclass = 1", fillcolor="#399de5"] ;
292 -> 294 ;
295 [label="gini = 0.0\nsamples = 4\nvalue = [4, 0]\nclass = 0", fillcolor="#e58139"] ;
289 -> 295 ;
296 [label="gini = 0.0\nsamples = 1\nvalue = [0, 1]\nclass = 1", fillcolor="#399de5"] ;
274 -> 296 ;
297 [label="Dst_Pt <= 29747.5\ngini = 0.036\nsamples = 54\nvalue = [53, 1]\nclass = 0", fillcolor="#e5833d"] ;
273 -> 297 ;
298 [label="gini = 0.0\nsamples = 38\nvalue = [38, 0]\nclass = 0", fillcolor="#e58139"] ;
297 -> 298 ;
299 [label="Dst_Pt <= 29825.5\ngini = 0.117\nsamples = 16\nvalue = [15, 1]\nclass = 0", fillcolor="#e78946"] ;
297 -> 299 ;
300 [label="gini = 0.0\nsamples = 1\nvalue = [0, 1]\nclass = 1", fillcolor="#399de5"] ;
299 -> 300 ;
301 [label="gini = 0.0\nsamples = 15\nvalue = [15, 0]\nclass = 0", fillcolor="#e58139"] ;
299 -> 301 ;
302 [label="Bytes <= 426.5\ngini = 0.255\nsamples = 40\nvalue = [34, 6]\nclass = 0", fillcolor="#ea975c"] ;
238 -> 302 ;
303 [label="Dst_Pt <= 18.5\ngini = 0.245\nsamples = 7\nvalue = [1, 6]\nclass = 1", fillcolor="#5aade9"] ;
302 -> 303 ;
304 [label="gini = 0.0\nsamples = 1\nvalue = [1, 0]\nclass = 0", fillcolor="#e58139"] ;
303 -> 304 ;
305 [label="gini = 0.0\nsamples = 6\nvalue = [0, 6]\nclass = 1", fillcolor="#399de5"] ;
303 -> 305 ;
306 [label="gini = 0.0\nsamples = 33\nvalue = [33, 0]\nclass = 0", fillcolor="#e58139"] ;
302 -> 306 ;
307 [label="Dst_Pt <= 21822.5\ngini = 0.147\nsamples = 1149\nvalue = [1057, 92]\nclass = 0", fillcolor="#e78c4a"] ;
237 -> 307 ;
308 [label="Dst_Pt <= 21650.5\ngini = 0.17\nsamples = 918\nvalue = [832, 86]\nclass = 0", fillcolor="#e88e4d"] ;
307 -> 308 ;
309 [label="Src_Pt <= 9993.5\ngini = 0.165\nsamples = 913\nvalue = [830, 83]\nclass = 0", fillcolor="#e88e4d"] ;
308 -> 309 ;
310 [label="Src_Pt <= 9960.0\ngini = 0.173\nsamples = 860\nvalue = [778, 82]\nclass = 0", fillcolor="#e88e4e"] ;
309 -> 310 ;
311 [label="Src_Pt <= 9424.5\ngini = 0.171\nsamples = 859\nvalue = [778, 81]\nclass = 0", fillcolor="#e88e4e"] ;
310 -> 311 ;
312 [label="Src_Pt <= 7857.0\ngini = 0.165\nsamples = 838\nvalue = [762, 76]\nclass = 0", fillcolor="#e88e4d"] ;
311 -> 312 ;
313 [label="Src_Pt <= 7827.0\ngini = 0.176\nsamples = 777\nvalue = [701, 76]\nclass = 0", fillcolor="#e88f4e"] ;
312 -> 313 ;
314 [label="Dst_Pt <= 7903.0\ngini = 0.173\nsamples = 775\nvalue = [701, 74]\nclass = 0", fillcolor="#e88e4e"] ;
313 -> 314 ;
315 [label="Dst_Pt <= 7874.0\ngini = 0.2\nsamples = 462\nvalue = [410, 52]\nclass = 0", fillcolor="#e89152"] ;
314 -> 315 ;
316 [label="Dst_Pt <= 4817.5\ngini = 0.197\nsamples = 461\nvalue = [410, 51]\nclass = 0", fillcolor="#e89152"] ;
315 -> 316 ;
317 [label="Bytes <= 573.5\ngini = 0.181\nsamples = 407\nvalue = [366, 41]\nclass = 0", fillcolor="#e88f4f"] ;
316 -> 317 ;
318 [label="Src_Pt <= 5020.5\ngini = 0.156\nsamples = 282\nvalue = [258, 24]\nclass = 0", fillcolor="#e78d4b"] ;
317 -> 318 ;
319 [label="Src_Pt <= 4974.5\ngini = 0.18\nsamples = 220\nvalue = [198, 22]\nclass = 0", fillcolor="#e88f4f"] ;
318 -> 319 ;
320 [label="Src_Pt <= 3781.0\ngini = 0.173\nsamples = 219\nvalue = [198, 21]\nclass = 0", fillcolor="#e88e4e"] ;
319 -> 320 ;
321 [label="Duration <= 273.5\ngini = 0.157\nsamples = 198\nvalue = [181, 17]\nclass = 0", fillcolor="#e78d4c"] ;
320 -> 321 ;
322 [label="Bytes <= 567.5\ngini = 0.15\nsamples = 196\nvalue = [180, 16]\nclass = 0", fillcolor="#e78c4b"] ;
321 -> 322 ;
323 [label="gini = 0.0\nsamples = 23\nvalue = [23, 0]\nclass = 0", fillcolor="#e58139"] ;
322 -> 323 ;
324 [label="Dst_Pt <= 2266.5\ngini = 0.168\nsamples = 173\nvalue = [157, 16]\nclass = 0", fillcolor="#e88e4d"] ;
322 -> 324 ;
325 [label="Dst_Pt <= 2200.0\ngini = 0.198\nsamples = 117\nvalue = [104, 13]\nclass = 0", fillcolor="#e89152"] ;
324 -> 325 ;
326 [label="Duration <= 18.5\ngini = 0.16\nsamples = 114\nvalue = [104, 10]\nclass = 0", fillcolor="#e88d4c"] ;
325 -> 326 ;
327 [label="gini = 0.0\nsamples = 16\nvalue = [16, 0]\nclass = 0", fillcolor="#e58139"] ;
326 -> 327 ;
328 [label="Dst_Pt <= 1177.0\ngini = 0.183\nsamples = 98\nvalue = [88, 10]\nclass = 0", fillcolor="#e88f50"] ;
326 -> 328 ;
329 [label="Dst_Pt <= 764.0\ngini = 0.145\nsamples = 76\nvalue = [70, 6]\nclass = 0", fillcolor="#e78c4a"] ;
328 -> 329 ;
330 [label="Dst_Pt <= 685.5\ngini = 0.18\nsamples = 60\nvalue = [54, 6]\nclass = 0", fillcolor="#e88f4f"] ;
329 -> 330 ;
331 [label="Src_Pt <= 2935.0\ngini = 0.155\nsamples = 59\nvalue = [54, 5]\nclass = 0", fillcolor="#e78d4b"] ;
330 -> 331 ;
332 [label="Src_Pt <= 2871.0\ngini = 0.183\nsamples = 49\nvalue = [44, 5]\nclass = 0", fillcolor="#e88f50"] ;
331 -> 332 ;
333 [label="Duration <= 126.0\ngini = 0.153\nsamples = 48\nvalue = [44, 4]\nclass = 0", fillcolor="#e78c4b"] ;
332 -> 333 ;
334 [label="Duration <= 25.5\ngini = 0.105\nsamples = 36\nvalue = [34, 2]\nclass = 0", fillcolor="#e78845"] ;
333 -> 334 ;
335 [label="Src_Pt <= 1212.0\ngini = 0.219\nsamples = 16\nvalue = [14, 2]\nclass = 0", fillcolor="#e99355"] ;
334 -> 335 ;
336 [label="Src_Pt <= 960.0\ngini = 0.346\nsamples = 9\nvalue = [7, 2]\nclass = 0", fillcolor="#eca572"] ;
335 -> 336 ;
337 [label="Dst_Pt <= 380.5\ngini = 0.219\nsamples = 8\nvalue = [7, 1]\nclass = 0", fillcolor="#e99355"] ;
336 -> 337 ;
338 [label="gini = 0.0\nsamples = 4\nvalue = [4, 0]\nclass = 0", fillcolor="#e58139"] ;
337 -> 338 ;
339 [label="Dst_Pt <= 492.0\ngini = 0.375\nsamples = 4\nvalue = [3, 1]\nclass = 0", fillcolor="#eeab7b"] ;
337 -> 339 ;
340 [label="gini = 0.0\nsamples = 1\nvalue = [0, 1]\nclass = 1", fillcolor="#399de5"] ;
339 -> 340 ;
341 [label="gini = 0.0\nsamples = 3\nvalue = [3, 0]\nclass = 0", fillcolor="#e58139"] ;
339 -> 341 ;
342 [label="gini = 0.0\nsamples = 1\nvalue = [0, 1]\nclass = 1", fillcolor="#399de5"] ;
336 -> 342 ;
343 [label="gini = 0.0\nsamples = 7\nvalue = [7, 0]\nclass = 0", fillcolor="#e58139"] ;
335 -> 343 ;
344 [label="gini = 0.0\nsamples = 20\nvalue = [20, 0]\nclass = 0", fillcolor="#e58139"] ;
334 -> 344 ;
345 [label="Src_Pt <= 1364.0\ngini = 0.278\nsamples = 12\nvalue = [10, 2]\nclass = 0", fillcolor="#ea9a61"] ;
333 -> 345 ;
346 [label="gini = 0.0\nsamples = 6\nvalue = [6, 0]\nclass = 0", fillcolor="#e58139"] ;
345 -> 346 ;
347 [label="Src_Pt <= 1446.0\ngini = 0.444\nsamples = 6\nvalue = [4, 2]\nclass = 0", fillcolor="#f2c09c"] ;
345 -> 347 ;
348 [label="gini = 0.0\nsamples = 1\nvalue = [0, 1]\nclass = 1", fillcolor="#399de5"] ;
347 -> 348 ;
349 [label="Duration <= 161.5\ngini = 0.32\nsamples = 5\nvalue = [4, 1]\nclass = 0", fillcolor="#eca06a"] ;
347 -> 349 ;
350 [label="gini = 0.0\nsamples = 3\nvalue = [3, 0]\nclass = 0", fillcolor="#e58139"] ;
349 -> 350 ;
351 [label="Src_Pt <= 1827.5\ngini = 0.5\nsamples = 2\nvalue = [1, 1]\nclass = 0", fillcolor="#ffffff"] ;
349 -> 351 ;
352 [label="gini = 0.0\nsamples = 1\nvalue = [1, 0]\nclass = 0", fillcolor="#e58139"] ;
351 -> 352 ;
353 [label="gini = 0.0\nsamples = 1\nvalue = [0, 1]\nclass = 1", fillcolor="#399de5"] ;
351 -> 353 ;
354 [label="gini = 0.0\nsamples = 1\nvalue = [0, 1]\nclass = 1", fillcolor="#399de5"] ;
332 -> 354 ;
355 [label="gini = 0.0\nsamples = 10\nvalue = [10, 0]\nclass = 0", fillcolor="#e58139"] ;
331 -> 355 ;
356 [label="gini = 0.0\nsamples = 1\nvalue = [0, 1]\nclass = 1", fillcolor="#399de5"] ;
330 -> 356 ;
357 [label="gini = 0.0\nsamples = 16\nvalue = [16, 0]\nclass = 0", fillcolor="#e58139"] ;
329 -> 357 ;
358 [label="Dst_Pt <= 1194.0\ngini = 0.298\nsamples = 22\nvalue = [18, 4]\nclass = 0", fillcolor="#eb9d65"] ;
328 -> 358 ;
359 [label="gini = 0.0\nsamples = 1\nvalue = [0, 1]\nclass = 1", fillcolor="#399de5"] ;
358 -> 359 ;
360 [label="Dst_Pt <= 1459.0\ngini = 0.245\nsamples = 21\nvalue = [18, 3]\nclass = 0", fillcolor="#e9965a"] ;
358 -> 360 ;
361 [label="gini = 0.0\nsamples = 6\nvalue = [6, 0]\nclass = 0", fillcolor="#e58139"] ;
360 -> 361 ;
362 [label="Dst_Pt <= 1468.0\ngini = 0.32\nsamples = 15\nvalue = [12, 3]\nclass = 0", fillcolor="#eca06a"] ;
360 -> 362 ;
363 [label="gini = 0.0\nsamples = 1\nvalue = [0, 1]\nclass = 1", fillcolor="#399de5"] ;
362 -> 363 ;
364 [label="Dst_Pt <= 1976.0\ngini = 0.245\nsamples = 14\nvalue = [12, 2]\nclass = 0", fillcolor="#e9965a"] ;
362 -> 364 ;
365 [label="Dst_Pt <= 1894.0\ngini = 0.346\nsamples = 9\nvalue = [7, 2]\nclass = 0", fillcolor="#eca572"] ;
364 -> 365 ;
366 [label="Dst_Pt <= 1769.5\ngini = 0.219\nsamples = 8\nvalue = [7, 1]\nclass = 0", fillcolor="#e99355"] ;
365 -> 366 ;
367 [label="Dst_Pt <= 1627.0\ngini = 0.444\nsamples = 3\nvalue = [2, 1]\nclass = 0", fillcolor="#f2c09c"] ;
366 -> 367 ;
368 [label="gini = 0.0\nsamples = 2\nvalue = [2, 0]\nclass = 0", fillcolor="#e58139"] ;
367 -> 368 ;
369 [label="gini = 0.0\nsamples = 1\nvalue = [0, 1]\nclass = 1", fillcolor="#399de5"] ;
367 -> 369 ;
370 [label="gini = 0.0\nsamples = 5\nvalue = [5, 0]\nclass = 0", fillcolor="#e58139"] ;
366 -> 370 ;
371 [label="gini = 0.0\nsamples = 1\nvalue = [0, 1]\nclass = 1", fillcolor="#399de5"] ;
365 -> 371 ;
372 [label="gini = 0.0\nsamples = 5\nvalue = [5, 0]\nclass = 0", fillcolor="#e58139"] ;
364 -> 372 ;
373 [label="gini = 0.0\nsamples = 3\nvalue = [0, 3]\nclass = 1", fillcolor="#399de5"] ;
325 -> 373 ;
374 [label="Dst_Pt <= 2899.5\ngini = 0.101\nsamples = 56\nvalue = [53, 3]\nclass = 0", fillcolor="#e68844"] ;
324 -> 374 ;
375 [label="gini = 0.0\nsamples = 28\nvalue = [28, 0]\nclass = 0", fillcolor="#e58139"] ;
374 -> 375 ;
376 [label="Dst_Pt <= 2959.0\ngini = 0.191\nsamples = 28\nvalue = [25, 3]\nclass = 0", fillcolor="#e89051"] ;
374 -> 376 ;
377 [label="gini = 0.0\nsamples = 1\nvalue = [0, 1]\nclass = 1", fillcolor="#399de5"] ;
376 -> 377 ;
378 [label="Duration <= 60.5\ngini = 0.137\nsamples = 27\nvalue = [25, 2]\nclass = 0", fillcolor="#e78b49"] ;
376 -> 378 ;
379 [label="Dst_Pt <= 3254.5\ngini = 0.083\nsamples = 23\nvalue = [22, 1]\nclass = 0", fillcolor="#e68742"] ;
378 -> 379 ;
380 [label="Duration <= 19.0\ngini = 0.444\nsamples = 3\nvalue = [2, 1]\nclass = 0", fillcolor="#f2c09c"] ;
379 -> 380 ;
381 [label="gini = 0.0\nsamples = 2\nvalue = [2, 0]\nclass = 0", fillcolor="#e58139"] ;
380 -> 381 ;
382 [label="gini = 0.0\nsamples = 1\nvalue = [0, 1]\nclass = 1", fillcolor="#399de5"] ;
380 -> 382 ;
383 [label="gini = 0.0\nsamples = 20\nvalue = [20, 0]\nclass = 0", fillcolor="#e58139"] ;
379 -> 383 ;
384 [label="Dst_Pt <= 3637.5\ngini = 0.375\nsamples = 4\nvalue = [3, 1]\nclass = 0", fillcolor="#eeab7b"] ;
378 -> 384 ;
385 [label="gini = 0.0\nsamples = 3\nvalue = [3, 0]\nclass = 0", fillcolor="#e58139"] ;
384 -> 385 ;
386 [label="gini = 0.0\nsamples = 1\nvalue = [0, 1]\nclass = 1", fillcolor="#399de5"] ;
384 -> 386 ;
387 [label="Src_Pt <= 2916.5\ngini = 0.5\nsamples = 2\nvalue = [1, 1]\nclass = 0", fillcolor="#ffffff"] ;
321 -> 387 ;
388 [label="gini = 0.0\nsamples = 1\nvalue = [0, 1]\nclass = 1", fillcolor="#399de5"] ;
387 -> 388 ;
389 [label="gini = 0.0\nsamples = 1\nvalue = [1, 0]\nclass = 0", fillcolor="#e58139"] ;
387 -> 389 ;
390 [label="Src_Pt <= 3805.0\ngini = 0.308\nsamples = 21\nvalue = [17, 4]\nclass = 0", fillcolor="#eb9f68"] ;
320 -> 390 ;
391 [label="gini = 0.0\nsamples = 2\nvalue = [0, 2]\nclass = 1", fillcolor="#399de5"] ;
390 -> 391 ;
392 [label="Src_Pt <= 4423.0\ngini = 0.188\nsamples = 19\nvalue = [17, 2]\nclass = 0", fillcolor="#e89050"] ;
390 -> 392 ;
393 [label="gini = 0.0\nsamples = 7\nvalue = [7, 0]\nclass = 0", fillcolor="#e58139"] ;
392 -> 393 ;
394 [label="Src_Pt <= 4516.0\ngini = 0.278\nsamples = 12\nvalue = [10, 2]\nclass = 0", fillcolor="#ea9a61"] ;
392 -> 394 ;
395 [label="gini = 0.0\nsamples = 1\nvalue = [0, 1]\nclass = 1", fillcolor="#399de5"] ;
394 -> 395 ;
396 [label="Duration <= 140.0\ngini = 0.165\nsamples = 11\nvalue = [10, 1]\nclass = 0", fillcolor="#e88e4d"] ;
394 -> 396 ;
397 [label="Src_Pt <= 4748.0\ngini = 0.375\nsamples = 4\nvalue = [3, 1]\nclass = 0", fillcolor="#eeab7b"] ;
396 -> 397 ;
398 [label="gini = 0.0\nsamples = 3\nvalue = [3, 0]\nclass = 0", fillcolor="#e58139"] ;
397 -> 398 ;
399 [label="gini = 0.0\nsamples = 1\nvalue = [0, 1]\nclass = 1", fillcolor="#399de5"] ;
397 -> 399 ;
400 [label="gini = 0.0\nsamples = 7\nvalue = [7, 0]\nclass = 0", fillcolor="#e58139"] ;
396 -> 400 ;
401 [label="gini = 0.0\nsamples = 1\nvalue = [0, 1]\nclass = 1", fillcolor="#399de5"] ;
319 -> 401 ;
402 [label="Bytes <= 567.5\ngini = 0.062\nsamples = 62\nvalue = [60, 2]\nclass = 0", fillcolor="#e68540"] ;
318 -> 402 ;
403 [label="gini = 0.0\nsamples = 28\nvalue = [28, 0]\nclass = 0", fillcolor="#e58139"] ;
402 -> 403 ;
404 [label="Src_Pt <= 6970.5\ngini = 0.111\nsamples = 34\nvalue = [32, 2]\nclass = 0", fillcolor="#e78945"] ;
402 -> 404 ;
405 [label="Src_Pt <= 6861.5\ngini = 0.198\nsamples = 18\nvalue = [16, 2]\nclass = 0", fillcolor="#e89152"] ;
404 -> 405 ;
406 [label="Duration <= 161.5\ngini = 0.111\nsamples = 17\nvalue = [16, 1]\nclass = 0", fillcolor="#e78945"] ;
405 -> 406 ;
407 [label="gini = 0.0\nsamples = 13\nvalue = [13, 0]\nclass = 0", fillcolor="#e58139"] ;
406 -> 407 ;
408 [label="Src_Pt <= 6094.5\ngini = 0.375\nsamples = 4\nvalue = [3, 1]\nclass = 0", fillcolor="#eeab7b"] ;
406 -> 408 ;
409 [label="Duration <= 330.5\ngini = 0.5\nsamples = 2\nvalue = [1, 1]\nclass = 0", fillcolor="#ffffff"] ;
408 -> 409 ;
410 [label="gini = 0.0\nsamples = 1\nvalue = [0, 1]\nclass = 1", fillcolor="#399de5"] ;
409 -> 410 ;
411 [label="gini = 0.0\nsamples = 1\nvalue = [1, 0]\nclass = 0", fillcolor="#e58139"] ;
409 -> 411 ;
412 [label="gini = 0.0\nsamples = 2\nvalue = [2, 0]\nclass = 0", fillcolor="#e58139"] ;
408 -> 412 ;
413 [label="gini = 0.0\nsamples = 1\nvalue = [0, 1]\nclass = 1", fillcolor="#399de5"] ;
405 -> 413 ;
414 [label="gini = 0.0\nsamples = 16\nvalue = [16, 0]\nclass = 0", fillcolor="#e58139"] ;
404 -> 414 ;
415 [label="Src_Pt <= 6856.5\ngini = 0.235\nsamples = 125\nvalue = [108, 17]\nclass = 0", fillcolor="#e99558"] ;
317 -> 415 ;
416 [label="Duration <= 58.0\ngini = 0.185\nsamples = 116\nvalue = [104, 12]\nclass = 0", fillcolor="#e89050"] ;
415 -> 416 ;
417 [label="gini = 0.0\nsamples = 21\nvalue = [21, 0]\nclass = 0", fillcolor="#e58139"] ;
416 -> 417 ;
418 [label="Duration <= 78.0\ngini = 0.221\nsamples = 95\nvalue = [83, 12]\nclass = 0", fillcolor="#e99356"] ;
416 -> 418 ;
419 [label="gini = 0.0\nsamples = 1\nvalue = [0, 1]\nclass = 1", fillcolor="#399de5"] ;
418 -> 419 ;
420 [label="Src_Pt <= 5874.5\ngini = 0.207\nsamples = 94\nvalue = [83, 11]\nclass = 0", fillcolor="#e89253"] ;
418 -> 420 ;
421 [label="Src_Pt <= 5860.5\ngini = 0.232\nsamples = 82\nvalue = [71, 11]\nclass = 0", fillcolor="#e99558"] ;
420 -> 421 ;
422 [label="Duration <= 161.5\ngini = 0.216\nsamples = 81\nvalue = [71, 10]\nclass = 0", fillcolor="#e99355"] ;
421 -> 422 ;
423 [label="Src_Pt <= 761.0\ngini = 0.172\nsamples = 63\nvalue = [57, 6]\nclass = 0", fillcolor="#e88e4e"] ;
422 -> 423 ;
424 [label="Src_Pt <= 670.0\ngini = 0.408\nsamples = 7\nvalue = [5, 2]\nclass = 0", fillcolor="#efb388"] ;
423 -> 424 ;
425 [label="Src_Pt <= 478.0\ngini = 0.278\nsamples = 6\nvalue = [5, 1]\nclass = 0", fillcolor="#ea9a61"] ;
424 -> 425 ;
426 [label="Src_Pt <= 334.5\ngini = 0.444\nsamples = 3\nvalue = [2, 1]\nclass = 0", fillcolor="#f2c09c"] ;
425 -> 426 ;
427 [label="gini = 0.0\nsamples = 2\nvalue = [2, 0]\nclass = 0", fillcolor="#e58139"] ;
426 -> 427 ;
428 [label="gini = 0.0\nsamples = 1\nvalue = [0, 1]\nclass = 1", fillcolor="#399de5"] ;
426 -> 428 ;
429 [label="gini = 0.0\nsamples = 3\nvalue = [3, 0]\nclass = 0", fillcolor="#e58139"] ;
425 -> 429 ;
430 [label="gini = 0.0\nsamples = 1\nvalue = [0, 1]\nclass = 1", fillcolor="#399de5"] ;
424 -> 430 ;
431 [label="Src_Pt <= 3094.0\ngini = 0.133\nsamples = 56\nvalue = [52, 4]\nclass = 0", fillcolor="#e78b48"] ;
423 -> 431 ;
432 [label="Src_Pt <= 1783.0\ngini = 0.056\nsamples = 35\nvalue = [34, 1]\nclass = 0", fillcolor="#e6853f"] ;
431 -> 432 ;
433 [label="Src_Pt <= 1569.0\ngini = 0.165\nsamples = 11\nvalue = [10, 1]\nclass = 0", fillcolor="#e88e4d"] ;
432 -> 433 ;
434 [label="gini = 0.0\nsamples = 10\nvalue = [10, 0]\nclass = 0", fillcolor="#e58139"] ;
433 -> 434 ;
435 [label="gini = 0.0\nsamples = 1\nvalue = [0, 1]\nclass = 1", fillcolor="#399de5"] ;
433 -> 435 ;
436 [label="gini = 0.0\nsamples = 24\nvalue = [24, 0]\nclass = 0", fillcolor="#e58139"] ;
432 -> 436 ;
437 [label="Src_Pt <= 3289.0\ngini = 0.245\nsamples = 21\nvalue = [18, 3]\nclass = 0", fillcolor="#e9965a"] ;
431 -> 437 ;
438 [label="gini = 0.0\nsamples = 1\nvalue = [0, 1]\nclass = 1", fillcolor="#399de5"] ;
437 -> 438 ;
439 [label="Duration <= 104.5\ngini = 0.18\nsamples = 20\nvalue = [18, 2]\nclass = 0", fillcolor="#e88f4f"] ;
437 -> 439 ;
440 [label="gini = 0.0\nsamples = 6\nvalue = [6, 0]\nclass = 0", fillcolor="#e58139"] ;
439 -> 440 ;
441 [label="Duration <= 126.0\ngini = 0.245\nsamples = 14\nvalue = [12, 2]\nclass = 0", fillcolor="#e9965a"] ;
439 -> 441 ;
442 [label="Src_Pt <= 5487.0\ngini = 0.32\nsamples = 10\nvalue = [8, 2]\nclass = 0", fillcolor="#eca06a"] ;
441 -> 442 ;
443 [label="Src_Pt <= 4213.5\ngini = 0.219\nsamples = 8\nvalue = [7, 1]\nclass = 0", fillcolor="#e99355"] ;
442 -> 443 ;
444 [label="Src_Pt <= 3791.0\ngini = 0.375\nsamples = 4\nvalue = [3, 1]\nclass = 0", fillcolor="#eeab7b"] ;
443 -> 444 ;
445 [label="gini = 0.0\nsamples = 3\nvalue = [3, 0]\nclass = 0", fillcolor="#e58139"] ;
444 -> 445 ;
446 [label="gini = 0.0\nsamples = 1\nvalue = [0, 1]\nclass = 1", fillcolor="#399de5"] ;
444 -> 446 ;
447 [label="gini = 0.0\nsamples = 4\nvalue = [4, 0]\nclass = 0", fillcolor="#e58139"] ;
443 -> 447 ;
448 [label="Src_Pt <= 5691.5\ngini = 0.5\nsamples = 2\nvalue = [1, 1]\nclass = 0", fillcolor="#ffffff"] ;
442 -> 448 ;
449 [label="gini = 0.0\nsamples = 1\nvalue = [0, 1]\nclass = 1", fillcolor="#399de5"] ;
448 -> 449 ;
450 [label="gini = 0.0\nsamples = 1\nvalue = [1, 0]\nclass = 0", fillcolor="#e58139"] ;
448 -> 450 ;
451 [label="gini = 0.0\nsamples = 4\nvalue = [4, 0]\nclass = 0", fillcolor="#e58139"] ;
441 -> 451 ;
452 [label="Src_Pt <= 1830.5\ngini = 0.346\nsamples = 18\nvalue = [14, 4]\nclass = 0", fillcolor="#eca572"] ;
422 -> 452 ;
453 [label="gini = 0.0\nsamples = 7\nvalue = [7, 0]\nclass = 0", fillcolor="#e58139"] ;
452 -> 453 ;
454 [label="Src_Pt <= 2689.5\ngini = 0.463\nsamples = 11\nvalue = [7, 4]\nclass = 0", fillcolor="#f4c9aa"] ;
452 -> 454 ;
455 [label="Src_Pt <= 2095.5\ngini = 0.375\nsamples = 4\nvalue = [1, 3]\nclass = 1", fillcolor="#7bbeee"] ;
454 -> 455 ;
456 [label="Src_Pt <= 1953.0\ngini = 0.5\nsamples = 2\nvalue = [1, 1]\nclass = 0", fillcolor="#ffffff"] ;
455 -> 456 ;
457 [label="gini = 0.0\nsamples = 1\nvalue = [0, 1]\nclass = 1", fillcolor="#399de5"] ;
456 -> 457 ;
458 [label="gini = 0.0\nsamples = 1\nvalue = [1, 0]\nclass = 0", fillcolor="#e58139"] ;
456 -> 458 ;
459 [label="gini = 0.0\nsamples = 2\nvalue = [0, 2]\nclass = 1", fillcolor="#399de5"] ;
455 -> 459 ;
460 [label="Src_Pt <= 4773.0\ngini = 0.245\nsamples = 7\nvalue = [6, 1]\nclass = 0", fillcolor="#e9965a"] ;
454 -> 460 ;
461 [label="gini = 0.0\nsamples = 4\nvalue = [4, 0]\nclass = 0", fillcolor="#e58139"] ;
460 -> 461 ;
462 [label="Src_Pt <= 5376.0\ngini = 0.444\nsamples = 3\nvalue = [2, 1]\nclass = 0", fillcolor="#f2c09c"] ;
460 -> 462 ;
463 [label="gini = 0.0\nsamples = 1\nvalue = [0, 1]\nclass = 1", fillcolor="#399de5"] ;
462 -> 463 ;
464 [label="gini = 0.0\nsamples = 2\nvalue = [2, 0]\nclass = 0", fillcolor="#e58139"] ;
462 -> 464 ;
465 [label="gini = 0.0\nsamples = 1\nvalue = [0, 1]\nclass = 1", fillcolor="#399de5"] ;
421 -> 465 ;
466 [label="gini = 0.0\nsamples = 12\nvalue = [12, 0]\nclass = 0", fillcolor="#e58139"] ;
420 -> 466 ;
467 [label="Duration <= 60.0\ngini = 0.494\nsamples = 9\nvalue = [4, 5]\nclass = 1", fillcolor="#d7ebfa"] ;
415 -> 467 ;
468 [label="gini = 0.0\nsamples = 4\nvalue = [0, 4]\nclass = 1", fillcolor="#399de5"] ;
467 -> 468 ;
469 [label="Src_Pt <= 7201.5\ngini = 0.32\nsamples = 5\nvalue = [4, 1]\nclass = 0", fillcolor="#eca06a"] ;
467 -> 469 ;
470 [label="gini = 0.0\nsamples = 1\nvalue = [0, 1]\nclass = 1", fillcolor="#399de5"] ;
469 -> 470 ;
471 [label="gini = 0.0\nsamples = 4\nvalue = [4, 0]\nclass = 0", fillcolor="#e58139"] ;
469 -> 471 ;
472 [label="Dst_Pt <= 5047.0\ngini = 0.302\nsamples = 54\nvalue = [44, 10]\nclass = 0", fillcolor="#eb9e66"] ;
316 -> 472 ;
473 [label="Duration <= 25.5\ngini = 0.444\nsamples = 3\nvalue = [1, 2]\nclass = 1", fillcolor="#9ccef2"] ;
472 -> 473 ;
474 [label="gini = 0.0\nsamples = 2\nvalue = [0, 2]\nclass = 1", fillcolor="#399de5"] ;
473 -> 474 ;
475 [label="gini = 0.0\nsamples = 1\nvalue = [1, 0]\nclass = 0", fillcolor="#e58139"] ;
473 -> 475 ;
476 [label="Duration <= 60.5\ngini = 0.265\nsamples = 51\nvalue = [43, 8]\nclass = 0", fillcolor="#ea985e"] ;
472 -> 476 ;
477 [label="Dst_Pt <= 7699.0\ngini = 0.157\nsamples = 35\nvalue = [32, 3]\nclass = 0", fillcolor="#e78d4c"] ;
476 -> 477 ;
478 [label="Dst_Pt <= 5636.0\ngini = 0.117\nsamples = 32\nvalue = [30, 2]\nclass = 0", fillcolor="#e78946"] ;
477 -> 478 ;
479 [label="Duration <= 19.0\ngini = 0.32\nsamples = 5\nvalue = [4, 1]\nclass = 0", fillcolor="#eca06a"] ;
478 -> 479 ;
480 [label="gini = 0.0\nsamples = 1\nvalue = [0, 1]\nclass = 1", fillcolor="#399de5"] ;
479 -> 480 ;
481 [label="gini = 0.0\nsamples = 4\nvalue = [4, 0]\nclass = 0", fillcolor="#e58139"] ;
479 -> 481 ;
482 [label="Duration <= 25.5\ngini = 0.071\nsamples = 27\nvalue = [26, 1]\nclass = 0", fillcolor="#e68641"] ;
478 -> 482 ;
483 [label="gini = 0.0\nsamples = 20\nvalue = [20, 0]\nclass = 0", fillcolor="#e58139"] ;
482 -> 483 ;
484 [label="Dst_Pt <= 6633.0\ngini = 0.245\nsamples = 7\nvalue = [6, 1]\nclass = 0", fillcolor="#e9965a"] ;
482 -> 484 ;
485 [label="gini = 0.0\nsamples = 4\nvalue = [4, 0]\nclass = 0", fillcolor="#e58139"] ;
484 -> 485 ;
486 [label="Dst_Pt <= 7078.5\ngini = 0.444\nsamples = 3\nvalue = [2, 1]\nclass = 0", fillcolor="#f2c09c"] ;
484 -> 486 ;
487 [label="gini = 0.0\nsamples = 1\nvalue = [0, 1]\nclass = 1", fillcolor="#399de5"] ;
486 -> 487 ;
488 [label="gini = 0.0\nsamples = 2\nvalue = [2, 0]\nclass = 0", fillcolor="#e58139"] ;
486 -> 488 ;
489 [label="Dst_Pt <= 7769.0\ngini = 0.444\nsamples = 3\nvalue = [2, 1]\nclass = 0", fillcolor="#f2c09c"] ;
477 -> 489 ;
490 [label="gini = 0.0\nsamples = 1\nvalue = [0, 1]\nclass = 1", fillcolor="#399de5"] ;
489 -> 490 ;
491 [label="gini = 0.0\nsamples = 2\nvalue = [2, 0]\nclass = 0", fillcolor="#e58139"] ;
489 -> 491 ;
492 [label="Dst_Pt <= 5311.5\ngini = 0.43\nsamples = 16\nvalue = [11, 5]\nclass = 0", fillcolor="#f1ba93"] ;
476 -> 492 ;
493 [label="gini = 0.0\nsamples = 1\nvalue = [0, 1]\nclass = 1", fillcolor="#399de5"] ;
492 -> 493 ;
494 [label="Dst_Pt <= 5724.0\ngini = 0.391\nsamples = 15\nvalue = [11, 4]\nclass = 0", fillcolor="#eeaf81"] ;
492 -> 494 ;
495 [label="gini = 0.0\nsamples = 4\nvalue = [4, 0]\nclass = 0", fillcolor="#e58139"] ;
494 -> 495 ;
496 [label="Dst_Pt <= 6135.0\ngini = 0.463\nsamples = 11\nvalue = [7, 4]\nclass = 0", fillcolor="#f4c9aa"] ;
494 -> 496 ;
497 [label="Dst_Pt <= 5911.0\ngini = 0.48\nsamples = 5\nvalue = [2, 3]\nclass = 1", fillcolor="#bddef6"] ;
496 -> 497 ;
498 [label="Duration <= 116.5\ngini = 0.444\nsamples = 3\nvalue = [2, 1]\nclass = 0", fillcolor="#f2c09c"] ;
497 -> 498 ;
499 [label="gini = 0.0\nsamples = 2\nvalue = [2, 0]\nclass = 0", fillcolor="#e58139"] ;
498 -> 499 ;
500 [label="gini = 0.0\nsamples = 1\nvalue = [0, 1]\nclass = 1", fillcolor="#399de5"] ;
498 -> 500 ;
501 [label="gini = 0.0\nsamples = 2\nvalue = [0, 2]\nclass = 1", fillcolor="#399de5"] ;
497 -> 501 ;
502 [label="Dst_Pt <= 6905.5\ngini = 0.278\nsamples = 6\nvalue = [5, 1]\nclass = 0", fillcolor="#ea9a61"] ;
496 -> 502 ;
503 [label="gini = 0.0\nsamples = 4\nvalue = [4, 0]\nclass = 0", fillcolor="#e58139"] ;
502 -> 503 ;
504 [label="Duration <= 104.5\ngini = 0.5\nsamples = 2\nvalue = [1, 1]\nclass = 0", fillcolor="#ffffff"] ;
502 -> 504 ;
505 [label="gini = 0.0\nsamples = 1\nvalue = [0, 1]\nclass = 1", fillcolor="#399de5"] ;
504 -> 505 ;
506 [label="gini = 0.0\nsamples = 1\nvalue = [1, 0]\nclass = 0", fillcolor="#e58139"] ;
504 -> 506 ;
507 [label="gini = 0.0\nsamples = 1\nvalue = [0, 1]\nclass = 1", fillcolor="#399de5"] ;
315 -> 507 ;
508 [label="Dst_Pt <= 18396.0\ngini = 0.131\nsamples = 313\nvalue = [291, 22]\nclass = 0", fillcolor="#e78b48"] ;
314 -> 508 ;
509 [label="Dst_Pt <= 15478.0\ngini = 0.091\nsamples = 231\nvalue = [220, 11]\nclass = 0", fillcolor="#e68743"] ;
508 -> 509 ;
510 [label="Dst_Pt <= 15464.5\ngini = 0.111\nsamples = 186\nvalue = [175, 11]\nclass = 0", fillcolor="#e78945"] ;
509 -> 510 ;
511 [label="Dst_Pt <= 9457.5\ngini = 0.093\nsamples = 184\nvalue = [175, 9]\nclass = 0", fillcolor="#e68743"] ;
510 -> 511 ;
512 [label="gini = 0.0\nsamples = 41\nvalue = [41, 0]\nclass = 0", fillcolor="#e58139"] ;
511 -> 512 ;
513 [label="Dst_Pt <= 9538.5\ngini = 0.118\nsamples = 143\nvalue = [134, 9]\nclass = 0", fillcolor="#e78946"] ;
511 -> 513 ;
514 [label="gini = 0.0\nsamples = 3\nvalue = [0, 3]\nclass = 1", fillcolor="#399de5"] ;
513 -> 514 ;
515 [label="Duration <= 58.5\ngini = 0.082\nsamples = 140\nvalue = [134, 6]\nclass = 0", fillcolor="#e68742"] ;
513 -> 515 ;
516 [label="Dst_Pt <= 12029.5\ngini = 0.039\nsamples = 101\nvalue = [99, 2]\nclass = 0", fillcolor="#e6843d"] ;
515 -> 516 ;
517 [label="Dst_Pt <= 11771.0\ngini = 0.087\nsamples = 44\nvalue = [42, 2]\nclass = 0", fillcolor="#e68742"] ;
516 -> 517 ;
518 [label="gini = 0.0\nsamples = 41\nvalue = [41, 0]\nclass = 0", fillcolor="#e58139"] ;
517 -> 518 ;
519 [label="Dst_Pt <= 11787.5\ngini = 0.444\nsamples = 3\nvalue = [1, 2]\nclass = 1", fillcolor="#9ccef2"] ;
517 -> 519 ;
520 [label="gini = 0.0\nsamples = 1\nvalue = [0, 1]\nclass = 1", fillcolor="#399de5"] ;
519 -> 520 ;
521 [label="Dst_Pt <= 11841.5\ngini = 0.5\nsamples = 2\nvalue = [1, 1]\nclass = 0", fillcolor="#ffffff"] ;
519 -> 521 ;
522 [label="gini = 0.0\nsamples = 1\nvalue = [1, 0]\nclass = 0", fillcolor="#e58139"] ;
521 -> 522 ;
523 [label="gini = 0.0\nsamples = 1\nvalue = [0, 1]\nclass = 1", fillcolor="#399de5"] ;
521 -> 523 ;
524 [label="gini = 0.0\nsamples = 57\nvalue = [57, 0]\nclass = 0", fillcolor="#e58139"] ;
516 -> 524 ;
525 [label="Dst_Pt <= 10092.0\ngini = 0.184\nsamples = 39\nvalue = [35, 4]\nclass = 0", fillcolor="#e88f50"] ;
515 -> 525 ;
526 [label="gini = 0.0\nsamples = 1\nvalue = [0, 1]\nclass = 1", fillcolor="#399de5"] ;
525 -> 526 ;
527 [label="Duration <= 93.0\ngini = 0.145\nsamples = 38\nvalue = [35, 3]\nclass = 0", fillcolor="#e78c4a"] ;
525 -> 527 ;
528 [label="gini = 0.0\nsamples = 1\nvalue = [0, 1]\nclass = 1", fillcolor="#399de5"] ;
527 -> 528 ;
529 [label="Duration <= 140.0\ngini = 0.102\nsamples = 37\nvalue = [35, 2]\nclass = 0", fillcolor="#e68844"] ;
527 -> 529 ;
530 [label="Dst_Pt <= 11012.0\ngini = 0.059\nsamples = 33\nvalue = [32, 1]\nclass = 0", fillcolor="#e6853f"] ;
529 -> 530 ;
531 [label="Dst_Pt <= 10892.0\ngini = 0.444\nsamples = 3\nvalue = [2, 1]\nclass = 0", fillcolor="#f2c09c"] ;
530 -> 531 ;
532 [label="gini = 0.0\nsamples = 2\nvalue = [2, 0]\nclass = 0", fillcolor="#e58139"] ;
531 -> 532 ;
533 [label="gini = 0.0\nsamples = 1\nvalue = [0, 1]\nclass = 1", fillcolor="#399de5"] ;
531 -> 533 ;
534 [label="gini = 0.0\nsamples = 30\nvalue = [30, 0]\nclass = 0", fillcolor="#e58139"] ;
530 -> 534 ;
535 [label="Duration <= 163.5\ngini = 0.375\nsamples = 4\nvalue = [3, 1]\nclass = 0", fillcolor="#eeab7b"] ;
529 -> 535 ;
536 [label="gini = 0.0\nsamples = 1\nvalue = [0, 1]\nclass = 1", fillcolor="#399de5"] ;
535 -> 536 ;
537 [label="gini = 0.0\nsamples = 3\nvalue = [3, 0]\nclass = 0", fillcolor="#e58139"] ;
535 -> 537 ;
538 [label="gini = 0.0\nsamples = 2\nvalue = [0, 2]\nclass = 1", fillcolor="#399de5"] ;
510 -> 538 ;
539 [label="gini = 0.0\nsamples = 45\nvalue = [45, 0]\nclass = 0", fillcolor="#e58139"] ;
509 -> 539 ;
540 [label="Dst_Pt <= 18461.5\ngini = 0.232\nsamples = 82\nvalue = [71, 11]\nclass = 0", fillcolor="#e99558"] ;
508 -> 540 ;
541 [label="gini = 0.0\nsamples = 2\nvalue = [0, 2]\nclass = 1", fillcolor="#399de5"] ;
540 -> 541 ;
542 [label="Dst_Pt <= 19020.5\ngini = 0.2\nsamples = 80\nvalue = [71, 9]\nclass = 0", fillcolor="#e89152"] ;
540 -> 542 ;
543 [label="gini = 0.0\nsamples = 16\nvalue = [16, 0]\nclass = 0", fillcolor="#e58139"] ;
542 -> 543 ;
544 [label="Dst_Pt <= 19328.0\ngini = 0.242\nsamples = 64\nvalue = [55, 9]\nclass = 0", fillcolor="#e99659"] ;
542 -> 544 ;
545 [label="Dst_Pt <= 19285.0\ngini = 0.375\nsamples = 4\nvalue = [1, 3]\nclass = 1", fillcolor="#7bbeee"] ;
544 -> 545 ;
546 [label="Duration <= 24.5\ngini = 0.5\nsamples = 2\nvalue = [1, 1]\nclass = 0", fillcolor="#ffffff"] ;
545 -> 546 ;
547 [label="gini = 0.0\nsamples = 1\nvalue = [0, 1]\nclass = 1", fillcolor="#399de5"] ;
546 -> 547 ;
548 [label="gini = 0.0\nsamples = 1\nvalue = [1, 0]\nclass = 0", fillcolor="#e58139"] ;
546 -> 548 ;
549 [label="gini = 0.0\nsamples = 2\nvalue = [0, 2]\nclass = 1", fillcolor="#399de5"] ;
545 -> 549 ;
550 [label="Dst_Pt <= 20226.0\ngini = 0.18\nsamples = 60\nvalue = [54, 6]\nclass = 0", fillcolor="#e88f4f"] ;
544 -> 550 ;
551 [label="gini = 0.0\nsamples = 26\nvalue = [26, 0]\nclass = 0", fillcolor="#e58139"] ;
550 -> 551 ;
552 [label="Dst_Pt <= 20459.0\ngini = 0.291\nsamples = 34\nvalue = [28, 6]\nclass = 0", fillcolor="#eb9c63"] ;
550 -> 552 ;
553 [label="Duration <= 25.5\ngini = 0.444\nsamples = 3\nvalue = [1, 2]\nclass = 1", fillcolor="#9ccef2"] ;
552 -> 553 ;
554 [label="gini = 0.0\nsamples = 1\nvalue = [0, 1]\nclass = 1", fillcolor="#399de5"] ;
553 -> 554 ;
555 [label="Dst_Pt <= 20265.0\ngini = 0.5\nsamples = 2\nvalue = [1, 1]\nclass = 0", fillcolor="#ffffff"] ;
553 -> 555 ;
556 [label="gini = 0.0\nsamples = 1\nvalue = [0, 1]\nclass = 1", fillcolor="#399de5"] ;
555 -> 556 ;
557 [label="gini = 0.0\nsamples = 1\nvalue = [1, 0]\nclass = 0", fillcolor="#e58139"] ;
555 -> 557 ;
558 [label="Dst_Pt <= 21275.5\ngini = 0.225\nsamples = 31\nvalue = [27, 4]\nclass = 0", fillcolor="#e99456"] ;
552 -> 558 ;
559 [label="Dst_Pt <= 21117.5\ngini = 0.308\nsamples = 21\nvalue = [17, 4]\nclass = 0", fillcolor="#eb9f68"] ;
558 -> 559 ;
560 [label="Dst_Pt <= 20724.5\ngini = 0.198\nsamples = 18\nvalue = [16, 2]\nclass = 0", fillcolor="#e89152"] ;
559 -> 560 ;
561 [label="Dst_Pt <= 20714.5\ngini = 0.346\nsamples = 9\nvalue = [7, 2]\nclass = 0", fillcolor="#eca572"] ;
560 -> 561 ;
562 [label="gini = 0.0\nsamples = 7\nvalue = [7, 0]\nclass = 0", fillcolor="#e58139"] ;
561 -> 562 ;
563 [label="gini = 0.0\nsamples = 2\nvalue = [0, 2]\nclass = 1", fillcolor="#399de5"] ;
561 -> 563 ;
564 [label="gini = 0.0\nsamples = 9\nvalue = [9, 0]\nclass = 0", fillcolor="#e58139"] ;
560 -> 564 ;
565 [label="Duration <= 18.5\ngini = 0.444\nsamples = 3\nvalue = [1, 2]\nclass = 1", fillcolor="#9ccef2"] ;
559 -> 565 ;
566 [label="gini = 0.0\nsamples = 1\nvalue = [0, 1]\nclass = 1", fillcolor="#399de5"] ;
565 -> 566 ;
567 [label="Dst_Pt <= 21254.0\ngini = 0.5\nsamples = 2\nvalue = [1, 1]\nclass = 0", fillcolor="#ffffff"] ;
565 -> 567 ;
568 [label="gini = 0.0\nsamples = 1\nvalue = [1, 0]\nclass = 0", fillcolor="#e58139"] ;
567 -> 568 ;
569 [label="gini = 0.0\nsamples = 1\nvalue = [0, 1]\nclass = 1", fillcolor="#399de5"] ;
567 -> 569 ;
570 [label="gini = 0.0\nsamples = 10\nvalue = [10, 0]\nclass = 0", fillcolor="#e58139"] ;
558 -> 570 ;
571 [label="gini = 0.0\nsamples = 2\nvalue = [0, 2]\nclass = 1", fillcolor="#399de5"] ;
313 -> 571 ;
572 [label="gini = 0.0\nsamples = 61\nvalue = [61, 0]\nclass = 0", fillcolor="#e58139"] ;
312 -> 572 ;
573 [label="Src_Pt <= 9490.5\ngini = 0.363\nsamples = 21\nvalue = [16, 5]\nclass = 0", fillcolor="#eda877"] ;
311 -> 573 ;
574 [label="gini = 0.0\nsamples = 3\nvalue = [0, 3]\nclass = 1", fillcolor="#399de5"] ;
573 -> 574 ;
575 [label="Bytes <= 570.0\ngini = 0.198\nsamples = 18\nvalue = [16, 2]\nclass = 0", fillcolor="#e89152"] ;
573 -> 575 ;
576 [label="Duration <= 60.0\ngini = 0.32\nsamples = 10\nvalue = [8, 2]\nclass = 0", fillcolor="#eca06a"] ;
575 -> 576 ;
577 [label="Duration <= 19.0\ngini = 0.5\nsamples = 2\nvalue = [1, 1]\nclass = 0", fillcolor="#ffffff"] ;
576 -> 577 ;
578 [label="gini = 0.0\nsamples = 1\nvalue = [1, 0]\nclass = 0", fillcolor="#e58139"] ;
577 -> 578 ;
579 [label="gini = 0.0\nsamples = 1\nvalue = [0, 1]\nclass = 1", fillcolor="#399de5"] ;
577 -> 579 ;
580 [label="Src_Pt <= 9694.0\ngini = 0.219\nsamples = 8\nvalue = [7, 1]\nclass = 0", fillcolor="#e99355"] ;
576 -> 580 ;
581 [label="Src_Pt <= 9600.0\ngini = 0.5\nsamples = 2\nvalue = [1, 1]\nclass = 0", fillcolor="#ffffff"] ;
580 -> 581 ;
582 [label="gini = 0.0\nsamples = 1\nvalue = [1, 0]\nclass = 0", fillcolor="#e58139"] ;
581 -> 582 ;
583 [label="gini = 0.0\nsamples = 1\nvalue = [0, 1]\nclass = 1", fillcolor="#399de5"] ;
581 -> 583 ;
584 [label="gini = 0.0\nsamples = 6\nvalue = [6, 0]\nclass = 0", fillcolor="#e58139"] ;
580 -> 584 ;
585 [label="gini = 0.0\nsamples = 8\nvalue = [8, 0]\nclass = 0", fillcolor="#e58139"] ;
575 -> 585 ;
586 [label="gini = 0.0\nsamples = 1\nvalue = [0, 1]\nclass = 1", fillcolor="#399de5"] ;
310 -> 586 ;
587 [label="Bytes <= 572.0\ngini = 0.037\nsamples = 53\nvalue = [52, 1]\nclass = 0", fillcolor="#e6833d"] ;
309 -> 587 ;
588 [label="gini = 0.0\nsamples = 29\nvalue = [29, 0]\nclass = 0", fillcolor="#e58139"] ;
587 -> 588 ;
589 [label="Src_Pt <= 10902.5\ngini = 0.08\nsamples = 24\nvalue = [23, 1]\nclass = 0", fillcolor="#e68642"] ;
587 -> 589 ;
590 [label="gini = 0.0\nsamples = 14\nvalue = [14, 0]\nclass = 0", fillcolor="#e58139"] ;
589 -> 590 ;
591 [label="Src_Pt <= 10950.0\ngini = 0.18\nsamples = 10\nvalue = [9, 1]\nclass = 0", fillcolor="#e88f4f"] ;
589 -> 591 ;
592 [label="gini = 0.0\nsamples = 1\nvalue = [0, 1]\nclass = 1", fillcolor="#399de5"] ;
591 -> 592 ;
593 [label="gini = 0.0\nsamples = 9\nvalue = [9, 0]\nclass = 0", fillcolor="#e58139"] ;
591 -> 593 ;
594 [label="Dst_Pt <= 21699.0\ngini = 0.48\nsamples = 5\nvalue = [2, 3]\nclass = 1", fillcolor="#bddef6"] ;
308 -> 594 ;
595 [label="gini = 0.0\nsamples = 2\nvalue = [0, 2]\nclass = 1", fillcolor="#399de5"] ;
594 -> 595 ;
596 [label="Dst_Pt <= 21739.0\ngini = 0.444\nsamples = 3\nvalue = [2, 1]\nclass = 0", fillcolor="#f2c09c"] ;
594 -> 596 ;
597 [label="gini = 0.0\nsamples = 2\nvalue = [2, 0]\nclass = 0", fillcolor="#e58139"] ;
596 -> 597 ;
598 [label="gini = 0.0\nsamples = 1\nvalue = [0, 1]\nclass = 1", fillcolor="#399de5"] ;
596 -> 598 ;
599 [label="Dst_Pt <= 22839.0\ngini = 0.051\nsamples = 231\nvalue = [225, 6]\nclass = 0", fillcolor="#e6843e"] ;
307 -> 599 ;
600 [label="Dst_Pt <= 22825.5\ngini = 0.102\nsamples = 37\nvalue = [35, 2]\nclass = 0", fillcolor="#e68844"] ;
599 -> 600 ;
601 [label="Duration <= 69.0\ngini = 0.054\nsamples = 36\nvalue = [35, 1]\nclass = 0", fillcolor="#e6853f"] ;
600 -> 601 ;
602 [label="gini = 0.0\nsamples = 25\nvalue = [25, 0]\nclass = 0", fillcolor="#e58139"] ;
601 -> 602 ;
603 [label="Duration <= 93.0\ngini = 0.165\nsamples = 11\nvalue = [10, 1]\nclass = 0", fillcolor="#e88e4d"] ;
601 -> 603 ;
604 [label="gini = 0.0\nsamples = 1\nvalue = [0, 1]\nclass = 1", fillcolor="#399de5"] ;
603 -> 604 ;
605 [label="gini = 0.0\nsamples = 10\nvalue = [10, 0]\nclass = 0", fillcolor="#e58139"] ;
603 -> 605 ;
606 [label="gini = 0.0\nsamples = 1\nvalue = [0, 1]\nclass = 1", fillcolor="#399de5"] ;
600 -> 606 ;
607 [label="Dst_Pt <= 26825.5\ngini = 0.04\nsamples = 194\nvalue = [190, 4]\nclass = 0", fillcolor="#e6843d"] ;
599 -> 607 ;
608 [label="Duration <= 18.5\ngini = 0.021\nsamples = 94\nvalue = [93, 1]\nclass = 0", fillcolor="#e5823b"] ;
607 -> 608 ;
609 [label="Dst_Pt <= 24013.0\ngini = 0.069\nsamples = 28\nvalue = [27, 1]\nclass = 0", fillcolor="#e68640"] ;
608 -> 609 ;
610 [label="Dst_Pt <= 23743.5\ngini = 0.153\nsamples = 12\nvalue = [11, 1]\nclass = 0", fillcolor="#e78c4b"] ;
609 -> 610 ;
611 [label="gini = 0.0\nsamples = 11\nvalue = [11, 0]\nclass = 0", fillcolor="#e58139"] ;
610 -> 611 ;
612 [label="gini = 0.0\nsamples = 1\nvalue = [0, 1]\nclass = 1", fillcolor="#399de5"] ;
610 -> 612 ;
613 [label="gini = 0.0\nsamples = 16\nvalue = [16, 0]\nclass = 0", fillcolor="#e58139"] ;
609 -> 613 ;
614 [label="gini = 0.0\nsamples = 66\nvalue = [66, 0]\nclass = 0", fillcolor="#e58139"] ;
608 -> 614 ;
615 [label="Dst_Pt <= 26845.0\ngini = 0.058\nsamples = 100\nvalue = [97, 3]\nclass = 0", fillcolor="#e6853f"] ;
607 -> 615 ;
616 [label="gini = 0.0\nsamples = 1\nvalue = [0, 1]\nclass = 1", fillcolor="#399de5"] ;
615 -> 616 ;
617 [label="Duration <= 25.5\ngini = 0.04\nsamples = 99\nvalue = [97, 2]\nclass = 0", fillcolor="#e6843d"] ;
615 -> 617 ;
618 [label="gini = 0.0\nsamples = 57\nvalue = [57, 0]\nclass = 0", fillcolor="#e58139"] ;
617 -> 618 ;
619 [label="Dst_Pt <= 29728.5\ngini = 0.091\nsamples = 42\nvalue = [40, 2]\nclass = 0", fillcolor="#e68743"] ;
617 -> 619 ;
620 [label="Dst_Pt <= 29648.5\ngini = 0.153\nsamples = 24\nvalue = [22, 2]\nclass = 0", fillcolor="#e78c4b"] ;
619 -> 620 ;
621 [label="Dst_Pt <= 28466.0\ngini = 0.083\nsamples = 23\nvalue = [22, 1]\nclass = 0", fillcolor="#e68742"] ;
620 -> 621 ;
622 [label="gini = 0.0\nsamples = 15\nvalue = [15, 0]\nclass = 0", fillcolor="#e58139"] ;
621 -> 622 ;
623 [label="Dst_Pt <= 28497.0\ngini = 0.219\nsamples = 8\nvalue = [7, 1]\nclass = 0", fillcolor="#e99355"] ;
621 -> 623 ;
624 [label="gini = 0.0\nsamples = 1\nvalue = [0, 1]\nclass = 1", fillcolor="#399de5"] ;
623 -> 624 ;
625 [label="gini = 0.0\nsamples = 7\nvalue = [7, 0]\nclass = 0", fillcolor="#e58139"] ;
623 -> 625 ;
626 [label="gini = 0.0\nsamples = 1\nvalue = [0, 1]\nclass = 1", fillcolor="#399de5"] ;
620 -> 626 ;
627 [label="gini = 0.0\nsamples = 18\nvalue = [18, 0]\nclass = 0", fillcolor="#e58139"] ;
619 -> 627 ;
628 [label="Src_Pt <= 11037.0\ngini = 0.025\nsamples = 10068\nvalue = [9942, 126]\nclass = 0", fillcolor="#e5833c"] ;
236 -> 628 ;
629 [label="Src_Pt <= 11.5\ngini = 0.038\nsamples = 6479\nvalue = [6355, 124]\nclass = 0", fillcolor="#e6833d"] ;
628 -> 629 ;
630 [label="gini = 0.0\nsamples = 2020\nvalue = [2020, 0]\nclass = 0", fillcolor="#e58139"] ;
629 -> 630 ;
631 [label="Dst_Pt <= 11546.5\ngini = 0.054\nsamples = 4459\nvalue = [4335, 124]\nclass = 0", fillcolor="#e6853f"] ;
629 -> 631 ;
632 [label="Duration <= 166.5\ngini = 0.034\nsamples = 3254\nvalue = [3197, 57]\nclass = 0", fillcolor="#e5833d"] ;
631 -> 632 ;
633 [label="Dst_Pt <= 8964.0\ngini = 0.071\nsamples = 1136\nvalue = [1094, 42]\nclass = 0", fillcolor="#e68641"] ;
632 -> 633 ;
634 [label="Dst_Pt <= 8935.5\ngini = 0.116\nsamples = 679\nvalue = [637, 42]\nclass = 0", fillcolor="#e78946"] ;
633 -> 634 ;
635 [label="Bytes <= 1423.0\ngini = 0.111\nsamples = 677\nvalue = [637, 40]\nclass = 0", fillcolor="#e78945"] ;
634 -> 635 ;
636 [label="Duration <= 113.5\ngini = 0.065\nsamples = 329\nvalue = [318, 11]\nclass = 0", fillcolor="#e68540"] ;
635 -> 636 ;
637 [label="Bytes <= 1046.5\ngini = 0.032\nsamples = 244\nvalue = [240, 4]\nclass = 0", fillcolor="#e5833c"] ;
636 -> 637 ;
638 [label="Duration <= 94.5\ngini = 0.01\nsamples = 191\nvalue = [190, 1]\nclass = 0", fillcolor="#e5823a"] ;
637 -> 638 ;
639 [label="gini = 0.0\nsamples = 128\nvalue = [128, 0]\nclass = 0", fillcolor="#e58139"] ;
638 -> 639 ;
640 [label="Bytes <= 686.5\ngini = 0.031\nsamples = 63\nvalue = [62, 1]\nclass = 0", fillcolor="#e5833c"] ;
638 -> 640 ;
641 [label="gini = 0.0\nsamples = 41\nvalue = [41, 0]\nclass = 0", fillcolor="#e58139"] ;
640 -> 641 ;
642 [label="Bytes <= 689.0\ngini = 0.087\nsamples = 22\nvalue = [21, 1]\nclass = 0", fillcolor="#e68742"] ;
640 -> 642 ;
643 [label="Src_Pt <= 6223.0\ngini = 0.5\nsamples = 2\nvalue = [1, 1]\nclass = 0", fillcolor="#ffffff"] ;
642 -> 643 ;
644 [label="gini = 0.0\nsamples = 1\nvalue = [0, 1]\nclass = 1", fillcolor="#399de5"] ;
643 -> 644 ;
645 [label="gini = 0.0\nsamples = 1\nvalue = [1, 0]\nclass = 0", fillcolor="#e58139"] ;
643 -> 645 ;
646 [label="gini = 0.0\nsamples = 20\nvalue = [20, 0]\nclass = 0", fillcolor="#e58139"] ;
642 -> 646 ;
647 [label="Bytes <= 1048.5\ngini = 0.107\nsamples = 53\nvalue = [50, 3]\nclass = 0", fillcolor="#e78945"] ;
637 -> 647 ;
648 [label="Src_Pt <= 3995.0\ngini = 0.444\nsamples = 3\nvalue = [1, 2]\nclass = 1", fillcolor="#9ccef2"] ;
647 -> 648 ;
649 [label="gini = 0.0\nsamples = 2\nvalue = [0, 2]\nclass = 1", fillcolor="#399de5"] ;
648 -> 649 ;
650 [label="gini = 0.0\nsamples = 1\nvalue = [1, 0]\nclass = 0", fillcolor="#e58139"] ;
648 -> 650 ;
651 [label="Duration <= 9.5\ngini = 0.039\nsamples = 50\nvalue = [49, 1]\nclass = 0", fillcolor="#e6843d"] ;
647 -> 651 ;
652 [label="Src_Pt <= 7893.0\ngini = 0.245\nsamples = 7\nvalue = [6, 1]\nclass = 0", fillcolor="#e9965a"] ;
651 -> 652 ;
653 [label="gini = 0.0\nsamples = 6\nvalue = [6, 0]\nclass = 0", fillcolor="#e58139"] ;
652 -> 653 ;
654 [label="gini = 0.0\nsamples = 1\nvalue = [0, 1]\nclass = 1", fillcolor="#399de5"] ;
652 -> 654 ;
655 [label="gini = 0.0\nsamples = 43\nvalue = [43, 0]\nclass = 0", fillcolor="#e58139"] ;
651 -> 655 ;
656 [label="Src_Pt <= 1144.0\ngini = 0.151\nsamples = 85\nvalue = [78, 7]\nclass = 0", fillcolor="#e78c4b"] ;
636 -> 656 ;
657 [label="gini = 0.0\nsamples = 29\nvalue = [29, 0]\nclass = 0", fillcolor="#e58139"] ;
656 -> 657 ;
658 [label="Src_Pt <= 3820.5\ngini = 0.219\nsamples = 56\nvalue = [49, 7]\nclass = 0", fillcolor="#e99355"] ;
656 -> 658 ;
659 [label="Bytes <= 857.5\ngini = 0.473\nsamples = 13\nvalue = [8, 5]\nclass = 0", fillcolor="#f5d0b5"] ;
658 -> 659 ;
660 [label="Duration <= 141.5\ngini = 0.469\nsamples = 8\nvalue = [3, 5]\nclass = 1", fillcolor="#b0d8f5"] ;
659 -> 660 ;
661 [label="Bytes <= 593.5\ngini = 0.408\nsamples = 7\nvalue = [2, 5]\nclass = 1", fillcolor="#88c4ef"] ;
660 -> 661 ;
662 [label="gini = 0.0\nsamples = 1\nvalue = [1, 0]\nclass = 0", fillcolor="#e58139"] ;
661 -> 662 ;
663 [label="Src_Pt <= 3452.0\ngini = 0.278\nsamples = 6\nvalue = [1, 5]\nclass = 1", fillcolor="#61b1ea"] ;
661 -> 663 ;
664 [label="gini = 0.0\nsamples = 3\nvalue = [0, 3]\nclass = 1", fillcolor="#399de5"] ;
663 -> 664 ;
665 [label="Src_Pt <= 3566.0\ngini = 0.444\nsamples = 3\nvalue = [1, 2]\nclass = 1", fillcolor="#9ccef2"] ;
663 -> 665 ;
666 [label="gini = 0.0\nsamples = 1\nvalue = [1, 0]\nclass = 0", fillcolor="#e58139"] ;
665 -> 666 ;
667 [label="gini = 0.0\nsamples = 2\nvalue = [0, 2]\nclass = 1", fillcolor="#399de5"] ;
665 -> 667 ;
668 [label="gini = 0.0\nsamples = 1\nvalue = [1, 0]\nclass = 0", fillcolor="#e58139"] ;
660 -> 668 ;
669 [label="gini = 0.0\nsamples = 5\nvalue = [5, 0]\nclass = 0", fillcolor="#e58139"] ;
659 -> 669 ;
670 [label="Bytes <= 697.5\ngini = 0.089\nsamples = 43\nvalue = [41, 2]\nclass = 0", fillcolor="#e68743"] ;
658 -> 670 ;
671 [label="gini = 0.0\nsamples = 32\nvalue = [32, 0]\nclass = 0", fillcolor="#e58139"] ;
670 -> 671 ;
672 [label="Bytes <= 706.5\ngini = 0.298\nsamples = 11\nvalue = [9, 2]\nclass = 0", fillcolor="#eb9d65"] ;
670 -> 672 ;
673 [label="gini = 0.0\nsamples = 1\nvalue = [0, 1]\nclass = 1", fillcolor="#399de5"] ;
672 -> 673 ;
674 [label="Packets <= 7.5\ngini = 0.18\nsamples = 10\nvalue = [9, 1]\nclass = 0", fillcolor="#e88f4f"] ;
672 -> 674 ;
675 [label="gini = 0.0\nsamples = 6\nvalue = [6, 0]\nclass = 0", fillcolor="#e58139"] ;
674 -> 675 ;
676 [label="Bytes <= 992.0\ngini = 0.375\nsamples = 4\nvalue = [3, 1]\nclass = 0", fillcolor="#eeab7b"] ;
674 -> 676 ;
677 [label="gini = 0.0\nsamples = 1\nvalue = [0, 1]\nclass = 1", fillcolor="#399de5"] ;
676 -> 677 ;
678 [label="gini = 0.0\nsamples = 3\nvalue = [3, 0]\nclass = 0", fillcolor="#e58139"] ;
676 -> 678 ;
679 [label="Bytes <= 1437.0\ngini = 0.153\nsamples = 348\nvalue = [319, 29]\nclass = 0", fillcolor="#e78c4b"] ;
635 -> 679 ;
680 [label="gini = 0.0\nsamples = 1\nvalue = [0, 1]\nclass = 1", fillcolor="#399de5"] ;
679 -> 680 ;
681 [label="Duration <= 154.5\ngini = 0.148\nsamples = 347\nvalue = [319, 28]\nclass = 0", fillcolor="#e78c4a"] ;
679 -> 681 ;
682 [label="Packets <= 7.5\ngini = 0.135\nsamples = 330\nvalue = [306, 24]\nclass = 0", fillcolor="#e78b49"] ;
681 -> 682 ;
683 [label="Src_Pt <= 8847.5\ngini = 0.198\nsamples = 162\nvalue = [144, 18]\nclass = 0", fillcolor="#e89152"] ;
682 -> 683 ;
684 [label="Dst_Pt <= 4091.0\ngini = 0.189\nsamples = 161\nvalue = [144, 17]\nclass = 0", fillcolor="#e89050"] ;
683 -> 684 ;
685 [label="Dst_Pt <= 3226.0\ngini = 0.275\nsamples = 85\nvalue = [71, 14]\nclass = 0", fillcolor="#ea9a60"] ;
684 -> 685 ;
686 [label="Dst_Pt <= 2145.0\ngini = 0.192\nsamples = 65\nvalue = [58, 7]\nclass = 0", fillcolor="#e89051"] ;
685 -> 686 ;
687 [label="Dst_Pt <= 1965.0\ngini = 0.254\nsamples = 47\nvalue = [40, 7]\nclass = 0", fillcolor="#ea975c"] ;
686 -> 687 ;
688 [label="Dst_Pt <= 1155.0\ngini = 0.227\nsamples = 46\nvalue = [40, 6]\nclass = 0", fillcolor="#e99457"] ;
687 -> 688 ;
689 [label="Duration <= 60.0\ngini = 0.157\nsamples = 35\nvalue = [32, 3]\nclass = 0", fillcolor="#e78d4c"] ;
688 -> 689 ;
690 [label="Duration <= 11.5\ngini = 0.074\nsamples = 26\nvalue = [25, 1]\nclass = 0", fillcolor="#e68641"] ;
689 -> 690 ;
691 [label="Bytes <= 1666.0\ngini = 0.198\nsamples = 9\nvalue = [8, 1]\nclass = 0", fillcolor="#e89152"] ;
690 -> 691 ;
692 [label="gini = 0.0\nsamples = 8\nvalue = [8, 0]\nclass = 0", fillcolor="#e58139"] ;
691 -> 692 ;
693 [label="gini = 0.0\nsamples = 1\nvalue = [0, 1]\nclass = 1", fillcolor="#399de5"] ;
691 -> 693 ;
694 [label="gini = 0.0\nsamples = 17\nvalue = [17, 0]\nclass = 0", fillcolor="#e58139"] ;
690 -> 694 ;
695 [label="Duration <= 72.5\ngini = 0.346\nsamples = 9\nvalue = [7, 2]\nclass = 0", fillcolor="#eca572"] ;
689 -> 695 ;
696 [label="gini = 0.0\nsamples = 1\nvalue = [0, 1]\nclass = 1", fillcolor="#399de5"] ;
695 -> 696 ;
697 [label="Bytes <= 5600.0\ngini = 0.219\nsamples = 8\nvalue = [7, 1]\nclass = 0", fillcolor="#e99355"] ;
695 -> 697 ;
698 [label="gini = 0.0\nsamples = 6\nvalue = [6, 0]\nclass = 0", fillcolor="#e58139"] ;
697 -> 698 ;
699 [label="Dst_Pt <= 742.5\ngini = 0.5\nsamples = 2\nvalue = [1, 1]\nclass = 0", fillcolor="#ffffff"] ;
697 -> 699 ;
700 [label="gini = 0.0\nsamples = 1\nvalue = [0, 1]\nclass = 1", fillcolor="#399de5"] ;
699 -> 700 ;
701 [label="gini = 0.0\nsamples = 1\nvalue = [1, 0]\nclass = 0", fillcolor="#e58139"] ;
699 -> 701 ;
702 [label="Dst_Pt <= 1259.0\ngini = 0.397\nsamples = 11\nvalue = [8, 3]\nclass = 0", fillcolor="#efb083"] ;
688 -> 702 ;
703 [label="gini = 0.0\nsamples = 2\nvalue = [0, 2]\nclass = 1", fillcolor="#399de5"] ;
702 -> 703 ;
704 [label="Packets <= 2.5\ngini = 0.198\nsamples = 9\nvalue = [8, 1]\nclass = 0", fillcolor="#e89152"] ;
702 -> 704 ;
705 [label="Dst_Pt <= 1488.5\ngini = 0.444\nsamples = 3\nvalue = [2, 1]\nclass = 0", fillcolor="#f2c09c"] ;
704 -> 705 ;
706 [label="gini = 0.0\nsamples = 1\nvalue = [0, 1]\nclass = 1", fillcolor="#399de5"] ;
705 -> 706 ;
707 [label="gini = 0.0\nsamples = 2\nvalue = [2, 0]\nclass = 0", fillcolor="#e58139"] ;
705 -> 707 ;
708 [label="gini = 0.0\nsamples = 6\nvalue = [6, 0]\nclass = 0", fillcolor="#e58139"] ;
704 -> 708 ;
709 [label="gini = 0.0\nsamples = 1\nvalue = [0, 1]\nclass = 1", fillcolor="#399de5"] ;
687 -> 709 ;
710 [label="gini = 0.0\nsamples = 18\nvalue = [18, 0]\nclass = 0", fillcolor="#e58139"] ;
686 -> 710 ;
711 [label="Dst_Pt <= 3338.0\ngini = 0.455\nsamples = 20\nvalue = [13, 7]\nclass = 0", fillcolor="#f3c5a4"] ;
685 -> 711 ;
712 [label="gini = 0.0\nsamples = 3\nvalue = [0, 3]\nclass = 1", fillcolor="#399de5"] ;
711 -> 712 ;
713 [label="Packets <= 3.5\ngini = 0.36\nsamples = 17\nvalue = [13, 4]\nclass = 0", fillcolor="#eda876"] ;
711 -> 713 ;
714 [label="Packets <= 2.5\ngini = 0.494\nsamples = 9\nvalue = [5, 4]\nclass = 0", fillcolor="#fae6d7"] ;
713 -> 714 ;
715 [label="Dst_Pt <= 3595.0\ngini = 0.408\nsamples = 7\nvalue = [5, 2]\nclass = 0", fillcolor="#efb388"] ;
714 -> 715 ;
716 [label="gini = 0.0\nsamples = 4\nvalue = [4, 0]\nclass = 0", fillcolor="#e58139"] ;
715 -> 716 ;
717 [label="Dst_Pt <= 3858.0\ngini = 0.444\nsamples = 3\nvalue = [1, 2]\nclass = 1", fillcolor="#9ccef2"] ;
715 -> 717 ;
718 [label="gini = 0.0\nsamples = 2\nvalue = [0, 2]\nclass = 1", fillcolor="#399de5"] ;
717 -> 718 ;
719 [label="gini = 0.0\nsamples = 1\nvalue = [1, 0]\nclass = 0", fillcolor="#e58139"] ;
717 -> 719 ;
720 [label="gini = 0.0\nsamples = 2\nvalue = [0, 2]\nclass = 1", fillcolor="#399de5"] ;
714 -> 720 ;
721 [label="gini = 0.0\nsamples = 8\nvalue = [8, 0]\nclass = 0", fillcolor="#e58139"] ;
713 -> 721 ;
722 [label="Bytes <= 2966.0\ngini = 0.076\nsamples = 76\nvalue = [73, 3]\nclass = 0", fillcolor="#e68641"] ;
684 -> 722 ;
723 [label="Bytes <= 2944.0\ngini = 0.185\nsamples = 29\nvalue = [26, 3]\nclass = 0", fillcolor="#e89050"] ;
722 -> 723 ;
724 [label="Dst_Pt <= 4870.0\ngini = 0.133\nsamples = 28\nvalue = [26, 2]\nclass = 0", fillcolor="#e78b48"] ;
723 -> 724 ;
725 [label="Duration <= 70.0\ngini = 0.444\nsamples = 3\nvalue = [2, 1]\nclass = 0", fillcolor="#f2c09c"] ;
724 -> 725 ;
726 [label="gini = 0.0\nsamples = 2\nvalue = [2, 0]\nclass = 0", fillcolor="#e58139"] ;
725 -> 726 ;
727 [label="gini = 0.0\nsamples = 1\nvalue = [0, 1]\nclass = 1", fillcolor="#399de5"] ;
725 -> 727 ;
728 [label="Bytes <= 2148.0\ngini = 0.077\nsamples = 25\nvalue = [24, 1]\nclass = 0", fillcolor="#e68641"] ;
724 -> 728 ;
729 [label="Bytes <= 2118.5\ngini = 0.165\nsamples = 11\nvalue = [10, 1]\nclass = 0", fillcolor="#e88e4d"] ;
728 -> 729 ;
730 [label="gini = 0.0\nsamples = 10\nvalue = [10, 0]\nclass = 0", fillcolor="#e58139"] ;
729 -> 730 ;
731 [label="gini = 0.0\nsamples = 1\nvalue = [0, 1]\nclass = 1", fillcolor="#399de5"] ;
729 -> 731 ;
732 [label="gini = 0.0\nsamples = 14\nvalue = [14, 0]\nclass = 0", fillcolor="#e58139"] ;
728 -> 732 ;
733 [label="gini = 0.0\nsamples = 1\nvalue = [0, 1]\nclass = 1", fillcolor="#399de5"] ;
723 -> 733 ;
734 [label="gini = 0.0\nsamples = 47\nvalue = [47, 0]\nclass = 0", fillcolor="#e58139"] ;
722 -> 734 ;
735 [label="gini = 0.0\nsamples = 1\nvalue = [0, 1]\nclass = 1", fillcolor="#399de5"] ;
683 -> 735 ;
736 [label="Packets <= 110.5\ngini = 0.069\nsamples = 168\nvalue = [162, 6]\nclass = 0", fillcolor="#e68640"] ;
682 -> 736 ;
737 [label="Src_Pt <= 3285.0\ngini = 0.059\nsamples = 165\nvalue = [160, 5]\nclass = 0", fillcolor="#e6853f"] ;
736 -> 737 ;
738 [label="Src_Pt <= 3079.5\ngini = 0.12\nsamples = 78\nvalue = [73, 5]\nclass = 0", fillcolor="#e78a47"] ;
737 -> 738 ;
739 [label="Bytes <= 1713.0\ngini = 0.053\nsamples = 74\nvalue = [72, 2]\nclass = 0", fillcolor="#e6843e"] ;
738 -> 739 ;
740 [label="Bytes <= 1564.0\ngini = 0.245\nsamples = 7\nvalue = [6, 1]\nclass = 0", fillcolor="#e9965a"] ;
739 -> 740 ;
741 [label="gini = 0.0\nsamples = 6\nvalue = [6, 0]\nclass = 0", fillcolor="#e58139"] ;
740 -> 741 ;
742 [label="gini = 0.0\nsamples = 1\nvalue = [0, 1]\nclass = 1", fillcolor="#399de5"] ;
740 -> 742 ;
743 [label="Duration <= 136.5\ngini = 0.029\nsamples = 67\nvalue = [66, 1]\nclass = 0", fillcolor="#e5833c"] ;
739 -> 743 ;
744 [label="gini = 0.0\nsamples = 55\nvalue = [55, 0]\nclass = 0", fillcolor="#e58139"] ;
743 -> 744 ;
745 [label="Duration <= 138.0\ngini = 0.153\nsamples = 12\nvalue = [11, 1]\nclass = 0", fillcolor="#e78c4b"] ;
743 -> 745 ;
746 [label="Packets <= 10.5\ngini = 0.5\nsamples = 2\nvalue = [1, 1]\nclass = 0", fillcolor="#ffffff"] ;
745 -> 746 ;
747 [label="gini = 0.0\nsamples = 1\nvalue = [0, 1]\nclass = 1", fillcolor="#399de5"] ;
746 -> 747 ;
748 [label="gini = 0.0\nsamples = 1\nvalue = [1, 0]\nclass = 0", fillcolor="#e58139"] ;
746 -> 748 ;
749 [label="gini = 0.0\nsamples = 10\nvalue = [10, 0]\nclass = 0", fillcolor="#e58139"] ;
745 -> 749 ;
750 [label="Duration <= 52.0\ngini = 0.375\nsamples = 4\nvalue = [1, 3]\nclass = 1", fillcolor="#7bbeee"] ;
738 -> 750 ;
751 [label="gini = 0.0\nsamples = 3\nvalue = [0, 3]\nclass = 1", fillcolor="#399de5"] ;
750 -> 751 ;
752 [label="gini = 0.0\nsamples = 1\nvalue = [1, 0]\nclass = 0", fillcolor="#e58139"] ;
750 -> 752 ;
753 [label="gini = 0.0\nsamples = 87\nvalue = [87, 0]\nclass = 0", fillcolor="#e58139"] ;
737 -> 753 ;
754 [label="Bytes <= 4041.5\ngini = 0.444\nsamples = 3\nvalue = [2, 1]\nclass = 0", fillcolor="#f2c09c"] ;
736 -> 754 ;
755 [label="gini = 0.0\nsamples = 1\nvalue = [0, 1]\nclass = 1", fillcolor="#399de5"] ;
754 -> 755 ;
756 [label="gini = 0.0\nsamples = 2\nvalue = [2, 0]\nclass = 0", fillcolor="#e58139"] ;
754 -> 756 ;
757 [label="Dst_Pt <= 6623.5\ngini = 0.36\nsamples = 17\nvalue = [13, 4]\nclass = 0", fillcolor="#eda876"] ;
681 -> 757 ;
758 [label="Duration <= 162.5\ngini = 0.231\nsamples = 15\nvalue = [13, 2]\nclass = 0", fillcolor="#e99457"] ;
757 -> 758 ;
759 [label="Packets <= 37.0\ngini = 0.346\nsamples = 9\nvalue = [7, 2]\nclass = 0", fillcolor="#eca572"] ;
758 -> 759 ;
760 [label="Dst_Pt <= 2892.5\ngini = 0.219\nsamples = 8\nvalue = [7, 1]\nclass = 0", fillcolor="#e99355"] ;
759 -> 760 ;
761 [label="gini = 0.0\nsamples = 6\nvalue = [6, 0]\nclass = 0", fillcolor="#e58139"] ;
760 -> 761 ;
762 [label="Duration <= 159.5\ngini = 0.5\nsamples = 2\nvalue = [1, 1]\nclass = 0", fillcolor="#ffffff"] ;
760 -> 762 ;
763 [label="gini = 0.0\nsamples = 1\nvalue = [0, 1]\nclass = 1", fillcolor="#399de5"] ;
762 -> 763 ;
764 [label="gini = 0.0\nsamples = 1\nvalue = [1, 0]\nclass = 0", fillcolor="#e58139"] ;
762 -> 764 ;
765 [label="gini = 0.0\nsamples = 1\nvalue = [0, 1]\nclass = 1", fillcolor="#399de5"] ;
759 -> 765 ;
766 [label="gini = 0.0\nsamples = 6\nvalue = [6, 0]\nclass = 0", fillcolor="#e58139"] ;
758 -> 766 ;
767 [label="gini = 0.0\nsamples = 2\nvalue = [0, 2]\nclass = 1", fillcolor="#399de5"] ;
757 -> 767 ;
768 [label="gini = 0.0\nsamples = 2\nvalue = [0, 2]\nclass = 1", fillcolor="#399de5"] ;
634 -> 768 ;
769 [label="gini = 0.0\nsamples = 457\nvalue = [457, 0]\nclass = 0", fillcolor="#e58139"] ;
633 -> 769 ;
770 [label="Bytes <= 21129.0\ngini = 0.014\nsamples = 2118\nvalue = [2103, 15]\nclass = 0", fillcolor="#e5823a"] ;
632 -> 770 ;
771 [label="Bytes <= 10176.5\ngini = 0.011\nsamples = 2092\nvalue = [2080, 12]\nclass = 0", fillcolor="#e5823a"] ;
770 -> 771 ;
772 [label="Bytes <= 598.5\ngini = 0.008\nsamples = 1972\nvalue = [1964, 8]\nclass = 0", fillcolor="#e5823a"] ;
771 -> 772 ;
773 [label="Src_Pt <= 2274.0\ngini = 0.153\nsamples = 12\nvalue = [11, 1]\nclass = 0", fillcolor="#e78c4b"] ;
772 -> 773 ;
774 [label="Bytes <= 588.5\ngini = 0.5\nsamples = 2\nvalue = [1, 1]\nclass = 0", fillcolor="#ffffff"] ;
773 -> 774 ;
775 [label="gini = 0.0\nsamples = 1\nvalue = [1, 0]\nclass = 0", fillcolor="#e58139"] ;
774 -> 775 ;
776 [label="gini = 0.0\nsamples = 1\nvalue = [0, 1]\nclass = 1", fillcolor="#399de5"] ;
774 -> 776 ;
777 [label="gini = 0.0\nsamples = 10\nvalue = [10, 0]\nclass = 0", fillcolor="#e58139"] ;
773 -> 777 ;
778 [label="Src_Pt <= 10935.5\ngini = 0.007\nsamples = 1960\nvalue = [1953, 7]\nclass = 0", fillcolor="#e5813a"] ;
772 -> 778 ;
779 [label="Dst_Pt <= 24.5\ngini = 0.006\nsamples = 1946\nvalue = [1940, 6]\nclass = 0", fillcolor="#e5813a"] ;
778 -> 779 ;
780 [label="Dst_Pt <= 18.5\ngini = 0.012\nsamples = 992\nvalue = [986, 6]\nclass = 0", fillcolor="#e5823a"] ;
779 -> 780 ;
781 [label="gini = 0.0\nsamples = 728\nvalue = [728, 0]\nclass = 0", fillcolor="#e58139"] ;
780 -> 781 ;
782 [label="Src_Pt <= 714.5\ngini = 0.044\nsamples = 264\nvalue = [258, 6]\nclass = 0", fillcolor="#e6843e"] ;
780 -> 782 ;
783 [label="Src_Pt <= 667.5\ngini = 0.298\nsamples = 11\nvalue = [9, 2]\nclass = 0", fillcolor="#eb9d65"] ;
782 -> 783 ;
784 [label="Bytes <= 4094.5\ngini = 0.18\nsamples = 10\nvalue = [9, 1]\nclass = 0", fillcolor="#e88f4f"] ;
783 -> 784 ;
785 [label="gini = 0.0\nsamples = 8\nvalue = [8, 0]\nclass = 0", fillcolor="#e58139"] ;
784 -> 785 ;
786 [label="Bytes <= 5561.5\ngini = 0.5\nsamples = 2\nvalue = [1, 1]\nclass = 0", fillcolor="#ffffff"] ;
784 -> 786 ;
787 [label="gini = 0.0\nsamples = 1\nvalue = [0, 1]\nclass = 1", fillcolor="#399de5"] ;
786 -> 787 ;
788 [label="gini = 0.0\nsamples = 1\nvalue = [1, 0]\nclass = 0", fillcolor="#e58139"] ;
786 -> 788 ;
789 [label="gini = 0.0\nsamples = 1\nvalue = [0, 1]\nclass = 1", fillcolor="#399de5"] ;
783 -> 789 ;
790 [label="Duration <= 1087.0\ngini = 0.031\nsamples = 253\nvalue = [249, 4]\nclass = 0", fillcolor="#e5833c"] ;
782 -> 790 ;
791 [label="Src_Pt <= 7283.0\ngini = 0.018\nsamples = 222\nvalue = [220, 2]\nclass = 0", fillcolor="#e5823b"] ;
790 -> 791 ;
792 [label="gini = 0.0\nsamples = 152\nvalue = [152, 0]\nclass = 0", fillcolor="#e58139"] ;
791 -> 792 ;
793 [label="Src_Pt <= 7298.0\ngini = 0.056\nsamples = 70\nvalue = [68, 2]\nclass = 0", fillcolor="#e6853f"] ;
791 -> 793 ;
794 [label="gini = 0.0\nsamples = 1\nvalue = [0, 1]\nclass = 1", fillcolor="#399de5"] ;
793 -> 794 ;
795 [label="Src_Pt <= 7395.0\ngini = 0.029\nsamples = 69\nvalue = [68, 1]\nclass = 0", fillcolor="#e5833c"] ;
793 -> 795 ;
796 [label="Duration <= 246.5\ngini = 0.375\nsamples = 4\nvalue = [3, 1]\nclass = 0", fillcolor="#eeab7b"] ;
795 -> 796 ;
797 [label="gini = 0.0\nsamples = 1\nvalue = [0, 1]\nclass = 1", fillcolor="#399de5"] ;
796 -> 797 ;
798 [label="gini = 0.0\nsamples = 3\nvalue = [3, 0]\nclass = 0", fillcolor="#e58139"] ;
796 -> 798 ;
799 [label="gini = 0.0\nsamples = 65\nvalue = [65, 0]\nclass = 0", fillcolor="#e58139"] ;
795 -> 799 ;
800 [label="Duration <= 1090.5\ngini = 0.121\nsamples = 31\nvalue = [29, 2]\nclass = 0", fillcolor="#e78a47"] ;
790 -> 800 ;
801 [label="gini = 0.0\nsamples = 1\nvalue = [0, 1]\nclass = 1", fillcolor="#399de5"] ;
800 -> 801 ;
802 [label="Duration <= 1541.5\ngini = 0.064\nsamples = 30\nvalue = [29, 1]\nclass = 0", fillcolor="#e68540"] ;
800 -> 802 ;
803 [label="gini = 0.0\nsamples = 17\nvalue = [17, 0]\nclass = 0", fillcolor="#e58139"] ;
802 -> 803 ;
804 [label="Duration <= 1635.5\ngini = 0.142\nsamples = 13\nvalue = [12, 1]\nclass = 0", fillcolor="#e78c49"] ;
802 -> 804 ;
805 [label="gini = 0.0\nsamples = 1\nvalue = [0, 1]\nclass = 1", fillcolor="#399de5"] ;
804 -> 805 ;
806 [label="gini = 0.0\nsamples = 12\nvalue = [12, 0]\nclass = 0", fillcolor="#e58139"] ;
804 -> 806 ;
807 [label="gini = 0.0\nsamples = 954\nvalue = [954, 0]\nclass = 0", fillcolor="#e58139"] ;
779 -> 807 ;
808 [label="Src_Pt <= 10950.5\ngini = 0.133\nsamples = 14\nvalue = [13, 1]\nclass = 0", fillcolor="#e78b48"] ;
778 -> 808 ;
809 [label="gini = 0.0\nsamples = 1\nvalue = [0, 1]\nclass = 1", fillcolor="#399de5"] ;
808 -> 809 ;
810 [label="gini = 0.0\nsamples = 13\nvalue = [13, 0]\nclass = 0", fillcolor="#e58139"] ;
808 -> 810 ;
811 [label="Dst_Pt <= 10956.5\ngini = 0.064\nsamples = 120\nvalue = [116, 4]\nclass = 0", fillcolor="#e68540"] ;
771 -> 811 ;
812 [label="Dst_Pt <= 5118.0\ngini = 0.051\nsamples = 114\nvalue = [111, 3]\nclass = 0", fillcolor="#e6843e"] ;
811 -> 812 ;
813 [label="gini = 0.0\nsamples = 52\nvalue = [52, 0]\nclass = 0", fillcolor="#e58139"] ;
812 -> 813 ;
814 [label="Dst_Pt <= 5152.5\ngini = 0.092\nsamples = 62\nvalue = [59, 3]\nclass = 0", fillcolor="#e68743"] ;
812 -> 814 ;
815 [label="gini = 0.0\nsamples = 1\nvalue = [0, 1]\nclass = 1", fillcolor="#399de5"] ;
814 -> 815 ;
816 [label="Bytes <= 10215.0\ngini = 0.063\nsamples = 61\nvalue = [59, 2]\nclass = 0", fillcolor="#e68540"] ;
814 -> 816 ;
817 [label="Dst_Pt <= 8197.5\ngini = 0.375\nsamples = 4\nvalue = [3, 1]\nclass = 0", fillcolor="#eeab7b"] ;
816 -> 817 ;
818 [label="gini = 0.0\nsamples = 1\nvalue = [0, 1]\nclass = 1", fillcolor="#399de5"] ;
817 -> 818 ;
819 [label="gini = 0.0\nsamples = 3\nvalue = [3, 0]\nclass = 0", fillcolor="#e58139"] ;
817 -> 819 ;
820 [label="Duration <= 257.0\ngini = 0.034\nsamples = 57\nvalue = [56, 1]\nclass = 0", fillcolor="#e5833d"] ;
816 -> 820 ;
821 [label="Duration <= 250.5\ngini = 0.165\nsamples = 11\nvalue = [10, 1]\nclass = 0", fillcolor="#e88e4d"] ;
820 -> 821 ;
822 [label="gini = 0.0\nsamples = 10\nvalue = [10, 0]\nclass = 0", fillcolor="#e58139"] ;
821 -> 822 ;
823 [label="gini = 0.0\nsamples = 1\nvalue = [0, 1]\nclass = 1", fillcolor="#399de5"] ;
821 -> 823 ;
824 [label="gini = 0.0\nsamples = 46\nvalue = [46, 0]\nclass = 0", fillcolor="#e58139"] ;
820 -> 824 ;
825 [label="Dst_Pt <= 10993.0\ngini = 0.278\nsamples = 6\nvalue = [5, 1]\nclass = 0", fillcolor="#ea9a61"] ;
811 -> 825 ;
826 [label="gini = 0.0\nsamples = 1\nvalue = [0, 1]\nclass = 1", fillcolor="#399de5"] ;
825 -> 826 ;
827 [label="gini = 0.0\nsamples = 5\nvalue = [5, 0]\nclass = 0", fillcolor="#e58139"] ;
825 -> 827 ;
828 [label="Bytes <= 21394.5\ngini = 0.204\nsamples = 26\nvalue = [23, 3]\nclass = 0", fillcolor="#e89153"] ;
770 -> 828 ;
829 [label="gini = 0.0\nsamples = 1\nvalue = [0, 1]\nclass = 1", fillcolor="#399de5"] ;
828 -> 829 ;
830 [label="Dst_Pt <= 387.5\ngini = 0.147\nsamples = 25\nvalue = [23, 2]\nclass = 0", fillcolor="#e78c4a"] ;
828 -> 830 ;
831 [label="Packets <= 56.5\ngini = 0.5\nsamples = 2\nvalue = [1, 1]\nclass = 0", fillcolor="#ffffff"] ;
830 -> 831 ;
832 [label="gini = 0.0\nsamples = 1\nvalue = [0, 1]\nclass = 1", fillcolor="#399de5"] ;
831 -> 832 ;
833 [label="gini = 0.0\nsamples = 1\nvalue = [1, 0]\nclass = 0", fillcolor="#e58139"] ;
831 -> 833 ;
834 [label="Packets <= 10.5\ngini = 0.083\nsamples = 23\nvalue = [22, 1]\nclass = 0", fillcolor="#e68742"] ;
830 -> 834 ;
835 [label="Duration <= 240.0\ngini = 0.375\nsamples = 4\nvalue = [3, 1]\nclass = 0", fillcolor="#eeab7b"] ;
834 -> 835 ;
836 [label="Packets <= 9.5\ngini = 0.5\nsamples = 2\nvalue = [1, 1]\nclass = 0", fillcolor="#ffffff"] ;
835 -> 836 ;
837 [label="gini = 0.0\nsamples = 1\nvalue = [1, 0]\nclass = 0", fillcolor="#e58139"] ;
836 -> 837 ;
838 [label="gini = 0.0\nsamples = 1\nvalue = [0, 1]\nclass = 1", fillcolor="#399de5"] ;
836 -> 838 ;
839 [label="gini = 0.0\nsamples = 2\nvalue = [2, 0]\nclass = 0", fillcolor="#e58139"] ;
835 -> 839 ;
840 [label="gini = 0.0\nsamples = 19\nvalue = [19, 0]\nclass = 0", fillcolor="#e58139"] ;
834 -> 840 ;
841 [label="Src_Pt <= 7169.0\ngini = 0.105\nsamples = 1205\nvalue = [1138, 67]\nclass = 0", fillcolor="#e78845"] ;
631 -> 841 ;
842 [label="Dst_Pt <= 15494.5\ngini = 0.078\nsamples = 1163\nvalue = [1116, 47]\nclass = 0", fillcolor="#e68641"] ;
841 -> 842 ;
843 [label="Packets <= 9.5\ngini = 0.168\nsamples = 281\nvalue = [255, 26]\nclass = 0", fillcolor="#e88e4d"] ;
842 -> 843 ;
844 [label="Dst_Pt <= 15305.5\ngini = 0.062\nsamples = 186\nvalue = [180, 6]\nclass = 0", fillcolor="#e68540"] ;
843 -> 844 ;
845 [label="Duration <= 186.0\ngini = 0.045\nsamples = 175\nvalue = [171, 4]\nclass = 0", fillcolor="#e6843e"] ;
844 -> 845 ;
846 [label="Duration <= 184.0\ngini = 0.075\nsamples = 102\nvalue = [98, 4]\nclass = 0", fillcolor="#e68641"] ;
845 -> 846 ;
847 [label="Duration <= 85.0\ngini = 0.04\nsamples = 97\nvalue = [95, 2]\nclass = 0", fillcolor="#e6843d"] ;
846 -> 847 ;
848 [label="gini = 0.0\nsamples = 49\nvalue = [49, 0]\nclass = 0", fillcolor="#e58139"] ;
847 -> 848 ;
849 [label="Duration <= 94.5\ngini = 0.08\nsamples = 48\nvalue = [46, 2]\nclass = 0", fillcolor="#e68642"] ;
847 -> 849 ;
850 [label="Dst_Pt <= 14571.5\ngini = 0.444\nsamples = 3\nvalue = [1, 2]\nclass = 1", fillcolor="#9ccef2"] ;
849 -> 850 ;
851 [label="gini = 0.0\nsamples = 2\nvalue = [0, 2]\nclass = 1", fillcolor="#399de5"] ;
850 -> 851 ;
852 [label="gini = 0.0\nsamples = 1\nvalue = [1, 0]\nclass = 0", fillcolor="#e58139"] ;
850 -> 852 ;
853 [label="gini = 0.0\nsamples = 45\nvalue = [45, 0]\nclass = 0", fillcolor="#e58139"] ;
849 -> 853 ;
854 [label="Dst_Pt <= 12930.0\ngini = 0.48\nsamples = 5\nvalue = [3, 2]\nclass = 0", fillcolor="#f6d5bd"] ;
846 -> 854 ;
855 [label="gini = 0.0\nsamples = 2\nvalue = [2, 0]\nclass = 0", fillcolor="#e58139"] ;
854 -> 855 ;
856 [label="Bytes <= 1177.5\ngini = 0.444\nsamples = 3\nvalue = [1, 2]\nclass = 1", fillcolor="#9ccef2"] ;
854 -> 856 ;
857 [label="gini = 0.0\nsamples = 1\nvalue = [1, 0]\nclass = 0", fillcolor="#e58139"] ;
856 -> 857 ;
858 [label="gini = 0.0\nsamples = 2\nvalue = [0, 2]\nclass = 1", fillcolor="#399de5"] ;
856 -> 858 ;
859 [label="gini = 0.0\nsamples = 73\nvalue = [73, 0]\nclass = 0", fillcolor="#e58139"] ;
845 -> 859 ;
860 [label="Dst_Pt <= 15318.0\ngini = 0.298\nsamples = 11\nvalue = [9, 2]\nclass = 0", fillcolor="#eb9d65"] ;
844 -> 860 ;
861 [label="gini = 0.0\nsamples = 2\nvalue = [0, 2]\nclass = 1", fillcolor="#399de5"] ;
860 -> 861 ;
862 [label="gini = 0.0\nsamples = 9\nvalue = [9, 0]\nclass = 0", fillcolor="#e58139"] ;
860 -> 862 ;
863 [label="Bytes <= 3233.0\ngini = 0.332\nsamples = 95\nvalue = [75, 20]\nclass = 0", fillcolor="#eca36e"] ;
843 -> 863 ;
864 [label="Bytes <= 2946.0\ngini = 0.198\nsamples = 9\nvalue = [1, 8]\nclass = 1", fillcolor="#52a9e8"] ;
863 -> 864 ;
865 [label="gini = 0.0\nsamples = 1\nvalue = [1, 0]\nclass = 0", fillcolor="#e58139"] ;
864 -> 865 ;
866 [label="gini = 0.0\nsamples = 8\nvalue = [0, 8]\nclass = 1", fillcolor="#399de5"] ;
864 -> 866 ;
867 [label="Dst_Pt <= 12192.0\ngini = 0.24\nsamples = 86\nvalue = [74, 12]\nclass = 0", fillcolor="#e99559"] ;
863 -> 867 ;
868 [label="gini = 0.0\nsamples = 36\nvalue = [36, 0]\nclass = 0", fillcolor="#e58139"] ;
867 -> 868 ;
869 [label="Duration <= 113.0\ngini = 0.365\nsamples = 50\nvalue = [38, 12]\nclass = 0", fillcolor="#eda978"] ;
867 -> 869 ;
870 [label="gini = 0.0\nsamples = 12\nvalue = [12, 0]\nclass = 0", fillcolor="#e58139"] ;
869 -> 870 ;
871 [label="Bytes <= 9428.0\ngini = 0.432\nsamples = 38\nvalue = [26, 12]\nclass = 0", fillcolor="#f1bb94"] ;
869 -> 871 ;
872 [label="gini = 0.0\nsamples = 2\nvalue = [0, 2]\nclass = 1", fillcolor="#399de5"] ;
871 -> 872 ;
873 [label="Bytes <= 42149.5\ngini = 0.401\nsamples = 36\nvalue = [26, 10]\nclass = 0", fillcolor="#efb185"] ;
871 -> 873 ;
874 [label="Bytes <= 20510.0\ngini = 0.36\nsamples = 34\nvalue = [26, 8]\nclass = 0", fillcolor="#eda876"] ;
873 -> 874 ;
875 [label="Packets <= 10.5\ngini = 0.444\nsamples = 24\nvalue = [16, 8]\nclass = 0", fillcolor="#f2c09c"] ;
874 -> 875 ;
876 [label="Duration <= 212.5\ngini = 0.219\nsamples = 8\nvalue = [7, 1]\nclass = 0", fillcolor="#e99355"] ;
875 -> 876 ;
877 [label="Dst_Pt <= 13381.5\ngini = 0.5\nsamples = 2\nvalue = [1, 1]\nclass = 0", fillcolor="#ffffff"] ;
876 -> 877 ;
878 [label="gini = 0.0\nsamples = 1\nvalue = [1, 0]\nclass = 0", fillcolor="#e58139"] ;
877 -> 878 ;
879 [label="gini = 0.0\nsamples = 1\nvalue = [0, 1]\nclass = 1", fillcolor="#399de5"] ;
877 -> 879 ;
880 [label="gini = 0.0\nsamples = 6\nvalue = [6, 0]\nclass = 0", fillcolor="#e58139"] ;
876 -> 880 ;
881 [label="Dst_Pt <= 12876.5\ngini = 0.492\nsamples = 16\nvalue = [9, 7]\nclass = 0", fillcolor="#f9e3d3"] ;
875 -> 881 ;
882 [label="gini = 0.0\nsamples = 2\nvalue = [0, 2]\nclass = 1", fillcolor="#399de5"] ;
881 -> 882 ;
883 [label="Duration <= 365.5\ngini = 0.459\nsamples = 14\nvalue = [9, 5]\nclass = 0", fillcolor="#f3c7a7"] ;
881 -> 883 ;
884 [label="gini = 0.0\nsamples = 4\nvalue = [4, 0]\nclass = 0", fillcolor="#e58139"] ;
883 -> 884 ;
885 [label="Dst_Pt <= 13627.0\ngini = 0.5\nsamples = 10\nvalue = [5, 5]\nclass = 0", fillcolor="#ffffff"] ;
883 -> 885 ;
886 [label="gini = 0.0\nsamples = 3\nvalue = [3, 0]\nclass = 0", fillcolor="#e58139"] ;
885 -> 886 ;
